<?xml version="1.0"?>
<MethodSetup Method="Category::BDTVtxId">
  <GeneralInfo>
    <Info name="TMVA Release" value="4.1.2 [262402]"/>
    <Info name="ROOT Release" value="5.32/00 [335872]"/>
    <Info name="Creator" value="jgonski"/>
    <Info name="Date" value="Wed Jul 31 10:02:58 2013"/>
    <Info name="Host" value="Linux lxbuild170.cern.ch 2.6.18-308.1.1.el5 #1 SMP Wed Mar 7 19:25:07 CET 2012 x86_64 x86_64 x86_64 GNU/Linux"/>
    <Info name="Dir" value="/afs/cern.ch/user/j/jgonski/CERN_REU/CMSSW_5_3_3/src/h2gglobe/VertexOptimization/macro"/>
    <Info name="Training events" value="1270840"/>
    <Info name="TrainingTime" value="1.85201631e+03"/>
    <Info name="AnalysisType" value="Classification"/>
  </GeneralInfo>
  <Options>
    <Option name="V" modified="No">False</Option>
    <Option name="VerbosityLevel" modified="No">Default</Option>
    <Option name="VarTransform" modified="No">None</Option>
    <Option name="H" modified="No">False</Option>
    <Option name="CreateMVAPdfs" modified="No">False</Option>
    <Option name="IgnoreNegWeightsInTraining" modified="No">False</Option>
  </Options>
  <Variables NVar="7">
    <Variable VarIndex="0" Expression="ptasym" Label="ptasym" Title="ptasym" Unit="" Internal="ptasym" Type="F" Min="-9.99964952e-01" Max="9.99882519e-01"/>
    <Variable VarIndex="1" Expression="ptbal" Label="ptbal" Title="ptbal" Unit="" Internal="ptbal" Type="F" Min="-1.68803656e+05" Max="4.89249451e+02"/>
    <Variable VarIndex="2" Expression="logsumpt2" Label="logsumpt2" Title="logsumpt2" Unit="" Internal="logsumpt2" Type="F" Min="-3.02636361e+00" Max="2.47671909e+01"/>
    <Variable VarIndex="3" Expression="limpulltoconv" Label="limpulltoconv" Title="limpulltoconv" Unit="" Internal="limpulltoconv" Type="F" Min="-1.00000000e+00" Max="1.00000000e+01"/>
    <Variable VarIndex="4" Expression="abs(tofCorrTdiff)" Label="absTof" Title="absTof" Unit="" Internal="absTof" Type="F" Min="1.19209290e-07" Max="1.90862536e+00"/>
    <Variable VarIndex="5" Expression="pho1.Eta()" Label="pho1.Eta()" Title="pho1.Eta()" Unit="" Internal="pho1.Eta__" Type="F" Min="-2.53478861e+00" Max="2.53421855e+00"/>
    <Variable VarIndex="6" Expression="pho2.Eta()" Label="pho2.Eta()" Title="pho2.Eta()" Unit="" Internal="pho2.Eta__" Type="F" Min="-2.53646135e+00" Max="2.53304195e+00"/>
  </Variables>
  <Spectators NSpec="9">
    <Spectator SpecIndex="0" Expression="dipho.Pt()" Label="dipho.Pt()" Title="dipho.Pt()" Unit="" Internal="dipho.Pt__" Type="F" Min="4.59440164e-02" Max="1.87962939e+03"/>
    <Spectator SpecIndex="1" Expression="pho1.Pt()" Label="pho1.Pt()" Title="pho1.Pt()" Unit="" Internal="pho1.Pt__" Type="F" Min="3.43192062e+01" Max="1.44983276e+03"/>
    <Spectator SpecIndex="2" Expression="pho2.Pt()" Label="pho2.Pt()" Title="pho2.Pt()" Unit="" Internal="pho2.Pt__" Type="F" Min="2.50872631e+01" Max="5.56698975e+02"/>
    <Spectator SpecIndex="3" Expression="passCiC" Label="passCiC" Title="passCiC" Unit="" Internal="passCiC" Type="F" Min="0.00000000e+00" Max="1.00000000e+00"/>
    <Spectator SpecIndex="4" Expression="nVert" Label="nVert" Title="nVert" Unit="" Internal="nVert" Type="F" Min="9.00000000e+00" Max="5.10000000e+01"/>
    <Spectator SpecIndex="5" Expression="nPU" Label="nPU" Title="nPU" Unit="" Internal="nPU" Type="F" Min="1.20000000e+01" Max="6.20000000e+01"/>
    <Spectator SpecIndex="6" Expression="mva" Label="mva" Title="mva" Unit="" Internal="mva" Type="F" Min="-9.99564230e-01" Max="9.98832524e-01"/>
    <Spectator SpecIndex="7" Expression="evWeight" Label="Signal_wei" Title="Signal_wei" Unit="" Internal="Signal_wei" Type="F" Min="2.47654151e-02" Max="3.86549205e-01"/>
    <Spectator SpecIndex="8" Expression="evWeight" Label="Background_wei" Title="Background_wei" Unit="" Internal="Background_wei" Type="F" Min="2.47654151e-02" Max="3.86549205e-01"/>
  </Spectators>
  <Classes NClass="2">
    <Class Name="Signal" Index="0"/>
    <Class Name="Background" Index="1"/>
  </Classes>
  <Transformations NTransformations="0"/>
  <MVAPdfs/>
  <Weights NSubMethods="2">
    <SubMethod Index="0" Method="BDT::BDTVtxId_noconv" Cut="nconv==0" Variables="ptasym:ptbal:logsumpt2:absTof:pho1.Eta():pho2.Eta()">
      <GeneralInfo>
        <Info name="TMVA Release" value="4.1.2 [262402]"/>
        <Info name="ROOT Release" value="5.32/00 [335872]"/>
        <Info name="Creator" value="jgonski"/>
        <Info name="Date" value="Wed Jul 31 10:02:59 2013"/>
        <Info name="Host" value="Linux lxbuild170.cern.ch 2.6.18-308.1.1.el5 #1 SMP Wed Mar 7 19:25:07 CET 2012 x86_64 x86_64 x86_64 GNU/Linux"/>
        <Info name="Dir" value="/afs/cern.ch/user/j/jgonski/CERN_REU/CMSSW_5_3_3/src/h2gglobe/VertexOptimization/macro"/>
        <Info name="Training events" value="841426"/>
        <Info name="TrainingTime" value="1.05292544e+03"/>
        <Info name="AnalysisType" value="Classification"/>
      </GeneralInfo>
      <Options>
        <Option name="V" modified="Yes">False</Option>
        <Option name="VerbosityLevel" modified="No">Default</Option>
        <Option name="VarTransform" modified="No">None</Option>
        <Option name="H" modified="Yes">False</Option>
        <Option name="CreateMVAPdfs" modified="Yes">False</Option>
        <Option name="IgnoreNegWeightsInTraining" modified="No">False</Option>
        <Option name="NTrees" modified="Yes">1000</Option>
        <Option name="RenormByClass" modified="No">False</Option>
        <Option name="BoostType" modified="Yes">Grad</Option>
        <Option name="AdaBoostR2Loss" modified="No">quadratic</Option>
        <Option name="UseBaggedGrad" modified="Yes">True</Option>
        <Option name="GradBaggingFraction" modified="Yes">6.000000e-01</Option>
        <Option name="Shrinkage" modified="Yes">3.000000e-01</Option>
        <Option name="AdaBoostBeta" modified="No">1.000000e+00</Option>
        <Option name="UseRandomisedTrees" modified="No">False</Option>
        <Option name="UseNvars" modified="No">3</Option>
        <Option name="UsePoissonNvars" modified="No">True</Option>
        <Option name="UseNTrainEvents" modified="No">841426</Option>
        <Option name="UseWeightedTrees" modified="No">True</Option>
        <Option name="UseYesNoLeaf" modified="No">True</Option>
        <Option name="NodePurityLimit" modified="No">5.000000e-01</Option>
        <Option name="SeparationType" modified="Yes">giniindex</Option>
        <Option name="nEventsMin" modified="No">10</Option>
        <Option name="nCuts" modified="Yes">20</Option>
        <Option name="UseFisherCuts" modified="No">False</Option>
        <Option name="MinLinCorrForFisher" modified="No">8.000000e-01</Option>
        <Option name="UseExclusiveVars" modified="No">False</Option>
        <Option name="PruneStrength" modified="No">0.000000e+00</Option>
        <Option name="PruneMethod" modified="No">nopruning</Option>
        <Option name="PruneBeforeBoost" modified="No">False</Option>
        <Option name="PruningValFraction" modified="No">5.000000e-01</Option>
        <Option name="NNodesMax" modified="Yes">5</Option>
        <Option name="MaxDepth" modified="No">3</Option>
        <Option name="DoBoostMonitor" modified="No">False</Option>
        <Option name="NegWeightTreatment" modified="No">ignorenegweights</Option>
      </Options>
      <Variables NVar="6">
        <Variable VarIndex="0" Expression="ptasym" Label="ptasym" Title="ptasym" Unit="" Internal="ptasym" Type="F" Min="-9.99955714e-01" Max="9.79535699e-01"/>
        <Variable VarIndex="1" Expression="ptbal" Label="ptbal" Title="ptbal" Unit="" Internal="ptbal" Type="F" Min="-6.00633984e+03" Max="4.19522034e+02"/>
        <Variable VarIndex="2" Expression="logsumpt2" Label="logsumpt2" Title="logsumpt2" Unit="" Internal="logsumpt2" Type="F" Min="-3.00335622e+00" Max="1.74049911e+01"/>
        <Variable VarIndex="3" Expression="abs(tofCorrTdiff)" Label="absTof" Title="absTof" Unit="" Internal="absTof" Type="F" Min="1.19209290e-07" Max="1.90862536e+00"/>
        <Variable VarIndex="4" Expression="pho1.Eta()" Label="pho1.Eta()" Title="pho1.Eta()" Unit="" Internal="pho1.Eta__" Type="F" Min="-2.53291607e+00" Max="2.53276730e+00"/>
        <Variable VarIndex="5" Expression="pho2.Eta()" Label="pho2.Eta()" Title="pho2.Eta()" Unit="" Internal="pho2.Eta__" Type="F" Min="-2.53646135e+00" Max="2.53304195e+00"/>
      </Variables>
      <Classes NClass="2">
        <Class Name="Signal" Index="0"/>
        <Class Name="Background" Index="1"/>
      </Classes>
      <Transformations NTransformations="1">
        <Transform Name="Rearrange">
          <Selection>
            <Input NInputs="6">
              <Input Type="Variable" Label="ptasym" Expression="ptasym"/>
              <Input Type="Variable" Label="ptbal" Expression="ptbal"/>
              <Input Type="Variable" Label="logsumpt2" Expression="logsumpt2"/>
              <Input Type="Variable" Label="absTof" Expression="abs(tofCorrTdiff)"/>
              <Input Type="Variable" Label="pho1.Eta()" Expression="pho1.Eta()"/>
              <Input Type="Variable" Label="pho2.Eta()" Expression="pho2.Eta()"/>
            </Input>
            <Output NOutputs="6">
              <Output Type="Variable" Label="ptasym" Expression="ptasym"/>
              <Output Type="Variable" Label="ptbal" Expression="ptbal"/>
              <Output Type="Variable" Label="logsumpt2" Expression="logsumpt2"/>
              <Output Type="Variable" Label="absTof" Expression="abs(tofCorrTdiff)"/>
              <Output Type="Variable" Label="pho1.Eta()" Expression="pho1.Eta()"/>
              <Output Type="Variable" Label="pho2.Eta()" Expression="pho2.Eta()"/>
            </Output>
          </Selection>
        </Transform>
      </Transformations>
      <MVAPdfs/>
      <Weights NTrees="1000" AnalysisType="1">
        <BinaryTree type="DecisionTree" boostWeight="1.0000000000000000e+00" itree="0">
          <Node pos="s" depth="0" NCoef="0" IVar="2" Cut="4.7712521553039551e+00" cType="0" res="-4.6257376670837402e-01" rms="1.8980388343334198e-01" purity="3.7426237016916275e-02" nType="0">
            <Node pos="l" depth="1" NCoef="0" IVar="-1" Cut="0.0000000000000000e+00" cType="1" res="-1.9895376637578011e-02" rms="4.9695116281509399e-01" purity="4.4486796855926514e-01" nType="-99"/>
            <Node pos="r" depth="1" NCoef="0" IVar="1" Cut="9.1911163330078125e+00" cType="0" res="-4.7691437602043152e-01" rms="1.5017551183700562e-01" purity="2.3085633292794228e-02" nType="0">
              <Node pos="l" depth="2" NCoef="0" IVar="-1" Cut="0.0000000000000000e+00" cType="1" res="-4.8275798559188843e-02" rms="4.8021650314331055e-01" purity="3.6074444651603699e-01" nType="-99"/>
              <Node pos="r" depth="2" NCoef="0" IVar="-1" Cut="0.0000000000000000e+00" cType="1" res="-1.7019152641296387e-01" rms="1.3082955777645111e-01" purity="1.7419822514057159e-02" nType="-99"/>
            </Node>
          </Node>
        </BinaryTree>
        <BinaryTree type="DecisionTree" boostWeight="1.0000000000000000e+00" itree="1">
          <Node pos="s" depth="0" NCoef="0" IVar="2" Cut="5.7430782318115234e+00" cType="0" res="-3.8171193003654480e-01" rms="1.8355670571327209e-01" purity="3.7525705993175507e-02" nType="0">
            <Node pos="l" depth="1" NCoef="0" IVar="-1" Cut="0.0000000000000000e+00" cType="1" res="1.4648264646530151e-01" rms="3.4711563587188721e-01" purity="8.5987597703933716e-01" nType="-99"/>
            <Node pos="r" depth="1" NCoef="0" IVar="1" Cut="1.4796419143676758e+01" cType="0" res="-3.8741603493690491e-01" rms="1.6945479810237885e-01" purity="3.1284123659133911e-02" nType="0">
              <Node pos="l" depth="2" NCoef="0" IVar="-1" Cut="0.0000000000000000e+00" cType="1" res="9.9194891750812531e-02" rms="4.1843661665916443e-01" purity="7.7153158187866211e-01" nType="-99"/>
              <Node pos="r" depth="2" NCoef="0" IVar="-1" Cut="0.0000000000000000e+00" cType="1" res="-1.4272250235080719e-01" rms="1.5194505453109741e-01" purity="2.4401074275374413e-02" nType="-99"/>
            </Node>
          </Node>
        </BinaryTree>
        <BinaryTree type="DecisionTree" boostWeight="1.0000000000000000e+00" itree="2">
          <Node pos="s" depth="0" NCoef="0" IVar="2" Cut="5.7430782318115234e+00" cType="0" res="-3.1632965803146362e-01" rms="1.7614448070526123e-01" purity="3.7675634026527405e-02" nType="0">
            <Node pos="l" depth="1" NCoef="0" IVar="-1" Cut="0.0000000000000000e+00" cType="1" res="1.1793896555900574e-01" rms="3.4860089421272278e-01" purity="8.5843741893768311e-01" nType="-99"/>
            <Node pos="r" depth="1" NCoef="0" IVar="1" Cut="9.2105836868286133e+00" cType="0" res="-3.2113733887672424e-01" rms="1.6538210213184357e-01" purity="3.1225953251123428e-02" nType="0">
              <Node pos="l" depth="2" NCoef="0" IVar="-1" Cut="0.0000000000000000e+00" cType="1" res="7.7888551168143749e-03" rms="4.7354888916015625e-01" purity="4.7659885883331299e-01" nType="-99"/>
              <Node pos="r" depth="2" NCoef="0" IVar="-1" Cut="0.0000000000000000e+00" cType="1" res="-1.2795163691043854e-01" rms="1.3862222433090210e-01" purity="1.9817434251308441e-02" nType="-99"/>
            </Node>
          </Node>
        </BinaryTree>
        <BinaryTree type="DecisionTree" boostWeight="1.0000000000000000e+00" itree="3">
          <Node pos="s" depth="0" NCoef="0" IVar="2" Cut="4.7897500991821289e+00" cType="0" res="-2.6302063465118408e-01" rms="1.7043916881084442e-01" purity="3.7561833858489990e-02" nType="0">
            <Node pos="l" depth="1" NCoef="0" IVar="-1" Cut="0.0000000000000000e+00" cType="1" res="-2.2952705621719360e-03" rms="4.3023967742919922e-01" purity="4.5016154646873474e-01" nType="-99"/>
            <Node pos="r" depth="1" NCoef="0" IVar="1" Cut="1.1767077445983887e+01" cType="0" res="-2.7176934480667114e-01" rms="1.4632995426654816e-01" purity="2.3517739027738571e-02" nType="0">
              <Node pos="l" depth="2" NCoef="0" IVar="-1" Cut="0.0000000000000000e+00" cType="1" res="2.1197376772761345e-02" rms="4.8615437746047974e-01" purity="5.2463817596435547e-01" nType="-99"/>
              <Node pos="r" depth="2" NCoef="0" IVar="-1" Cut="0.0000000000000000e+00" cType="1" res="-1.1666012555360794e-01" rms="1.3687500357627869e-01" purity="1.9403513520956039e-02" nType="-99"/>
            </Node>
          </Node>
        </BinaryTree>
        <BinaryTree type="DecisionTree" boostWeight="1.0000000000000000e+00" itree="4">
          <Node pos="s" depth="0" NCoef="0" IVar="1" Cut="2.4477394104003906e+01" cType="0" res="-2.1877776086330414e-01" rms="1.6808342933654785e-01" purity="3.7828639149665833e-02" nType="0">
            <Node pos="l" depth="1" NCoef="0" IVar="-1" Cut="0.0000000000000000e+00" cType="1" res="1.5311084687709808e-01" rms="1.4085762202739716e-01" purity="9.8060220479965210e-01" nType="-99"/>
            <Node pos="r" depth="1" NCoef="0" IVar="1" Cut="8.8716144561767578e+00" cType="0" res="-2.2384153306484222e-01" rms="1.5881571173667908e-01" purity="2.9964834451675415e-02" nType="0">
              <Node pos="l" depth="2" NCoef="0" IVar="-1" Cut="0.0000000000000000e+00" cType="1" res="-3.6333182360976934e-03" rms="4.6258181333541870e-01" purity="4.1416323184967041e-01" nType="-99"/>
              <Node pos="r" depth="2" NCoef="0" IVar="-1" Cut="0.0000000000000000e+00" cType="1" res="-1.0829588770866394e-01" rms="1.3797029852867126e-01" purity="1.9884059205651283e-02" nType="-99"/>
            </Node>
          </Node>
        </BinaryTree>
        <BinaryTree type="DecisionTree" boostWeight="1.0000000000000000e+00" itree="5">
          <Node pos="s" depth="0" NCoef="0" IVar="1" Cut="1.4916560173034668e+01" cType="0" res="-1.8251362442970276e-01" rms="1.6384088993072510e-01" purity="3.7647027522325516e-02" nType="0">
            <Node pos="l" depth="1" NCoef="0" IVar="-1" Cut="0.0000000000000000e+00" cType="1" res="9.5976851880550385e-02" rms="3.3143380284309387e-01" purity="8.5710722208023071e-01" nType="-99"/>
            <Node pos="r" depth="1" NCoef="0" IVar="0" Cut="-6.2397390604019165e-01" cType="0" res="-1.8903613090515137e-01" rms="1.5080939233303070e-01" purity="2.5169014930725098e-02" nType="0">
              <Node pos="l" depth="2" NCoef="0" IVar="-1" Cut="0.0000000000000000e+00" cType="1" res="-7.2354622185230255e-02" rms="2.5801205635070801e-01" purity="7.8235514461994171e-02" nType="-99"/>
              <Node pos="r" depth="2" NCoef="0" IVar="-1" Cut="0.0000000000000000e+00" cType="1" res="-1.0808128863573074e-01" rms="9.7876541316509247e-02" purity="9.9956803023815155e-03" nType="-99"/>
            </Node>
          </Node>
        </BinaryTree>
        <BinaryTree type="DecisionTree" boostWeight="1.0000000000000000e+00" itree="6">
          <Node pos="s" depth="0" NCoef="0" IVar="1" Cut="1.4916560173034668e+01" cType="0" res="-1.5226210653781891e-01" rms="1.6076479852199554e-01" purity="3.7607308477163315e-02" nType="0">
            <Node pos="l" depth="1" NCoef="0" IVar="-1" Cut="0.0000000000000000e+00" cType="1" res="7.9907491803169250e-02" rms="3.3947682380676270e-01" purity="8.4964859485626221e-01" nType="-99"/>
            <Node pos="r" depth="1" NCoef="0" IVar="1" Cut="7.2090625762939453e+00" cType="0" res="-1.5761598944664001e-01" rms="1.5025928616523743e-01" purity="2.5120997801423073e-02" nType="0">
              <Node pos="l" depth="2" NCoef="0" IVar="-1" Cut="0.0000000000000000e+00" cType="1" res="-2.0877586677670479e-02" rms="4.0718421339988708e-01" purity="2.3166112601757050e-01" nType="-99"/>
              <Node pos="r" depth="2" NCoef="0" IVar="-1" Cut="0.0000000000000000e+00" cType="1" res="-9.6728131175041199e-02" rms="1.3180154561996460e-01" purity="1.8232258036732674e-02" nType="-99"/>
            </Node>
          </Node>
        </BinaryTree>
        <BinaryTree type="DecisionTree" boostWeight="1.0000000000000000e+00" itree="7">
          <Node pos="s" depth="0" NCoef="0" IVar="2" Cut="3.7994263172149658e+00" cType="0" res="-1.2711776793003082e-01" rms="1.5821558237075806e-01" purity="3.7348542362451553e-02" nType="0">
            <Node pos="l" depth="1" NCoef="0" IVar="-1" Cut="0.0000000000000000e+00" cType="1" res="-3.8718253374099731e-02" rms="2.9479062557220459e-01" purity="1.6114304959774017e-01" nType="-99"/>
            <Node pos="r" depth="1" NCoef="0" IVar="1" Cut="4.3813214302062988e+00" cType="0" res="-1.3961990177631378e-01" rms="1.0688649117946625e-01" purity="1.1959020979702473e-02" nType="0">
              <Node pos="l" depth="2" NCoef="0" IVar="-1" Cut="0.0000000000000000e+00" cType="1" res="-5.5827058851718903e-02" rms="2.6758357882499695e-01" purity="8.3237849175930023e-02" nType="-99"/>
              <Node pos="r" depth="2" NCoef="0" IVar="-1" Cut="0.0000000000000000e+00" cType="1" res="-9.8029471933841705e-02" rms="9.0884976089000702e-02" purity="8.3728246390819550e-03" nType="-99"/>
            </Node>
          </Node>
        </BinaryTree>
        <BinaryTree type="DecisionTree" boostWeight="1.0000000000000000e+00" itree="8">
          <Node pos="s" depth="0" NCoef="0" IVar="2" Cut="4.7712521553039551e+00" cType="0" res="-1.0601963102817535e-01" rms="1.5797069668769836e-01" purity="3.7496812641620636e-02" nType="0">
            <Node pos="l" depth="1" NCoef="0" IVar="-1" Cut="0.0000000000000000e+00" cType="1" res="1.4106601476669312e-02" rms="3.7098598480224609e-01" purity="4.3751531839370728e-01" nType="-99"/>
            <Node pos="r" depth="1" NCoef="0" IVar="1" Cut="5.0843272209167480e+00" cType="0" res="-1.1087157577276230e-01" rms="1.4235544204711914e-01" purity="2.3283395916223526e-02" nType="0">
              <Node pos="l" depth="2" NCoef="0" IVar="-1" Cut="0.0000000000000000e+00" cType="1" res="-2.4025784805417061e-02" rms="3.4516185522079468e-01" purity="1.6753746569156647e-01" nType="-99"/>
              <Node pos="r" depth="2" NCoef="0" IVar="-1" Cut="0.0000000000000000e+00" cType="1" res="-9.0443827211856842e-02" rms="1.1583894491195679e-01" purity="1.3784106820821762e-02" nType="-99"/>
            </Node>
          </Node>
        </BinaryTree>
        <BinaryTree type="DecisionTree" boostWeight="1.0000000000000000e+00" itree="9">
          <Node pos="s" depth="0" NCoef="0" IVar="1" Cut="5.7766947746276855e+00" cType="0" res="-8.8520705699920654e-02" rms="1.5675784647464752e-01" purity="3.7534225732088089e-02" nType="0">
            <Node pos="l" depth="1" NCoef="0" IVar="-1" Cut="0.0000000000000000e+00" cType="1" res="1.2624374590814114e-02" rms="3.7299624085426331e-01" purity="3.3911499381065369e-01" nType="-99"/>
            <Node pos="r" depth="1" NCoef="0" IVar="0" Cut="-7.1717125177383423e-01" cType="0" res="-9.6421763300895691e-02" rms="1.2488567829132080e-01" purity="1.6412822529673576e-02" nType="0">
              <Node pos="l" depth="2" NCoef="0" IVar="-1" Cut="0.0000000000000000e+00" cType="1" res="-6.3087396323680878e-02" rms="1.9934104382991791e-01" purity="4.2700264602899551e-02" nType="-99"/>
              <Node pos="r" depth="2" NCoef="0" IVar="-1" Cut="0.0000000000000000e+00" cType="1" res="-9.5175877213478088e-02" rms="7.8111805021762848e-02" purity="6.2450277619063854e-03" nType="-99"/>
            </Node>
          </Node>
        </BinaryTree>
        <BinaryTree type="DecisionTree" boostWeight="1.0000000000000000e+00" itree="10">
          <Node pos="s" depth="0" NCoef="0" IVar="2" Cut="5.8002572059631348e+00" cType="0" res="-7.4186123907566071e-02" rms="1.5525326132774353e-01" purity="3.7255797535181046e-02" nType="0">
            <Node pos="l" depth="1" NCoef="0" IVar="-1" Cut="0.0000000000000000e+00" cType="1" res="8.9710496366024017e-02" rms="2.7730828523635864e-01" purity="8.7134635448455811e-01" nType="-99"/>
            <Node pos="r" depth="1" NCoef="0" IVar="1" Cut="1.5908383369445801e+01" cType="0" res="-7.6093316078186035e-02" rms="1.5237551927566528e-01" purity="3.1046278774738312e-02" nType="0">
              <Node pos="l" depth="2" NCoef="0" IVar="-1" Cut="0.0000000000000000e+00" cType="1" res="6.8134680390357971e-02" rms="3.7321314215660095e-01" purity="8.2081866264343262e-01" nType="-99"/>
              <Node pos="r" depth="2" NCoef="0" IVar="-1" Cut="0.0000000000000000e+00" cType="1" res="-7.5802087783813477e-02" rms="1.4748895168304443e-01" purity="2.4682166054844856e-02" nType="-99"/>
            </Node>
          </Node>
        </BinaryTree>
        <BinaryTree type="DecisionTree" boostWeight="1.0000000000000000e+00" itree="11">
          <Node pos="s" depth="0" NCoef="0" IVar="1" Cut="2.4566167831420898e+01" cType="0" res="-6.1821289360523224e-02" rms="1.5422774851322174e-01" purity="3.7371985614299774e-02" nType="0">
            <Node pos="l" depth="1" NCoef="0" IVar="-1" Cut="0.0000000000000000e+00" cType="1" res="1.1501438915729523e-01" rms="1.3321588933467865e-01" purity="9.8254293203353882e-01" nType="-99"/>
            <Node pos="r" depth="1" NCoef="0" IVar="1" Cut="7.9712762832641602e+00" cType="0" res="-6.4145840704441071e-02" rms="1.5224377810955048e-01" purity="2.9546322301030159e-02" nType="0">
              <Node pos="l" depth="2" NCoef="0" IVar="-1" Cut="0.0000000000000000e+00" cType="1" res="1.2965259142220020e-02" rms="4.3099993467330933e-01" purity="3.6174282431602478e-01" nType="-99"/>
              <Node pos="r" depth="2" NCoef="0" IVar="-1" Cut="0.0000000000000000e+00" cType="1" res="-7.5867608189582825e-02" rms="1.3248164951801300e-01" purity="1.8641633912920952e-02" nType="-99"/>
            </Node>
          </Node>
        </BinaryTree>
        <BinaryTree type="DecisionTree" boostWeight="1.0000000000000000e+00" itree="12">
          <Node pos="s" depth="0" NCoef="0" IVar="0" Cut="-5.2957314252853394e-01" cType="0" res="-5.1648449152708054e-02" rms="1.5386432409286499e-01" purity="3.7300206720829010e-02" nType="0">
            <Node pos="l" depth="1" NCoef="0" IVar="-1" Cut="0.0000000000000000e+00" cType="1" res="-8.0603891983628273e-03" rms="2.7255985140800476e-01" purity="1.4380665123462677e-01" nType="-99"/>
            <Node pos="r" depth="1" NCoef="0" IVar="2" Cut="5.0318570137023926e+00" cType="0" res="-6.0613419860601425e-02" rms="1.1179534345865250e-01" purity="1.4750824309885502e-02" nType="0">
              <Node pos="l" depth="2" NCoef="0" IVar="-1" Cut="0.0000000000000000e+00" cType="1" res="2.1034078672528267e-02" rms="3.8255470991134644e-01" purity="3.5495093464851379e-01" nType="-99"/>
              <Node pos="r" depth="2" NCoef="0" IVar="-1" Cut="0.0000000000000000e+00" cType="1" res="-8.0878168344497681e-02" rms="1.0706626623868942e-01" purity="1.2291518040001392e-02" nType="-99"/>
            </Node>
          </Node>
        </BinaryTree>
        <BinaryTree type="DecisionTree" boostWeight="1.0000000000000000e+00" itree="13">
          <Node pos="s" depth="0" NCoef="0" IVar="1" Cut="5.7766947746276855e+00" cType="0" res="-4.2818583548069000e-02" rms="1.5428596735000610e-01" purity="3.7573933601379395e-02" nType="0">
            <Node pos="l" depth="1" NCoef="0" IVar="-1" Cut="0.0000000000000000e+00" cType="1" res="2.2460427135229111e-02" rms="3.6594197154045105e-01" purity="3.3936634659767151e-01" nType="-99"/>
            <Node pos="r" depth="1" NCoef="0" IVar="2" Cut="3.1622619628906250e+00" cType="0" res="-4.8443414270877838e-02" rms="1.2504434585571289e-01" purity="1.6516044735908508e-02" nType="0">
              <Node pos="l" depth="2" NCoef="0" IVar="-1" Cut="0.0000000000000000e+00" cType="1" res="-4.0617160499095917e-02" rms="2.0128121972084045e-01" purity="4.3890558183193207e-02" nType="-99"/>
              <Node pos="r" depth="2" NCoef="0" IVar="-1" Cut="0.0000000000000000e+00" cType="1" res="-8.4091074764728546e-02" rms="7.8982144594192505e-02" purity="6.3298391178250313e-03" nType="-99"/>
            </Node>
          </Node>
        </BinaryTree>
        <BinaryTree type="DecisionTree" boostWeight="1.0000000000000000e+00" itree="14">
          <Node pos="s" depth="0" NCoef="0" IVar="2" Cut="3.8193466663360596e+00" cType="0" res="-3.6229625344276428e-02" rms="1.5205015242099762e-01" purity="3.6912497133016586e-02" nType="0">
            <Node pos="l" depth="1" NCoef="0" IVar="-1" Cut="0.0000000000000000e+00" cType="1" res="-6.8349436332937330e-05" rms="2.8469568490982056e-01" purity="1.6188506782054901e-01" nType="-99"/>
            <Node pos="r" depth="1" NCoef="0" IVar="1" Cut="3.9007208347320557e+00" cType="0" res="-4.3453954160213470e-02" rms="1.0597057640552521e-01" purity="1.1940351687371731e-02" nType="0">
              <Node pos="l" depth="2" NCoef="0" IVar="-1" Cut="0.0000000000000000e+00" cType="1" res="-2.1613519638776779e-02" rms="2.5036522746086121e-01" purity="7.2785079479217529e-02" nType="-99"/>
              <Node pos="r" depth="2" NCoef="0" IVar="-1" Cut="0.0000000000000000e+00" cType="1" res="-7.9027682542800903e-02" rms="8.8413007557392120e-02" purity="7.9502789303660393e-03" nType="-99"/>
            </Node>
          </Node>
        </BinaryTree>
        <BinaryTree type="DecisionTree" boostWeight="1.0000000000000000e+00" itree="15">
          <Node pos="s" depth="0" NCoef="0" IVar="0" Cut="-6.2288397550582886e-01" cType="0" res="-2.9877860099077225e-02" rms="1.5299721062183380e-01" purity="3.7595782428979874e-02" nType="0">
            <Node pos="l" depth="1" NCoef="0" IVar="-1" Cut="0.0000000000000000e+00" cType="1" res="-1.0028495453298092e-03" rms="2.6035362482070923e-01" purity="1.2625750899314880e-01" nType="-99"/>
            <Node pos="r" depth="1" NCoef="0" IVar="0" Cut="-7.3060995340347290e-01" cType="0" res="-3.8603261113166809e-02" rms="9.8415009677410126e-02" purity="1.0834415443241596e-02" nType="0">
              <Node pos="l" depth="2" NCoef="0" IVar="-1" Cut="0.0000000000000000e+00" cType="1" res="-3.9713386446237564e-02" rms="1.7543546855449677e-01" purity="3.8464415818452835e-02" nType="-99"/>
              <Node pos="r" depth="2" NCoef="0" IVar="-1" Cut="0.0000000000000000e+00" cType="1" res="-8.1983454525470734e-02" rms="8.1710778176784515e-02" purity="6.9279312156140804e-03" nType="-99"/>
            </Node>
          </Node>
        </BinaryTree>
        <BinaryTree type="DecisionTree" boostWeight="1.0000000000000000e+00" itree="16">
          <Node pos="s" depth="0" NCoef="0" IVar="2" Cut="4.7897500991821289e+00" cType="0" res="-2.4723401293158531e-02" rms="1.5284623205661774e-01" purity="3.7745114415884018e-02" nType="0">
            <Node pos="l" depth="1" NCoef="0" IVar="-1" Cut="0.0000000000000000e+00" cType="1" res="3.2069824635982513e-02" rms="3.4970501065254211e-01" purity="4.5391356945037842e-01" nType="-99"/>
            <Node pos="r" depth="1" NCoef="0" IVar="1" Cut="1.1204591751098633e+01" cType="0" res="-2.7497399598360062e-02" rms="1.4047585427761078e-01" purity="2.3456530645489693e-02" nType="0">
              <Node pos="l" depth="2" NCoef="0" IVar="-1" Cut="0.0000000000000000e+00" cType="1" res="3.1785745173692703e-02" rms="4.7346010804176331e-01" purity="4.9987101554870605e-01" nType="-99"/>
              <Node pos="r" depth="2" NCoef="0" IVar="-1" Cut="0.0000000000000000e+00" cType="1" res="-5.6062050163745880e-02" rms="1.3300633430480957e-01" purity="1.8952464684844017e-02" nType="-99"/>
            </Node>
          </Node>
        </BinaryTree>
        <BinaryTree type="DecisionTree" boostWeight="1.0000000000000000e+00" itree="17">
          <Node pos="s" depth="0" NCoef="0" IVar="1" Cut="2.4566167831420898e+01" cType="0" res="-2.0830918103456497e-02" rms="1.5234503149986267e-01" purity="3.7605781108140945e-02" nType="0">
            <Node pos="l" depth="1" NCoef="0" IVar="-1" Cut="0.0000000000000000e+00" cType="1" res="1.0000763833522797e-01" rms="1.5717689692974091e-01" purity="9.7461307048797607e-01" nType="-99"/>
            <Node pos="r" depth="1" NCoef="0" IVar="1" Cut="2.4409193992614746e+00" cType="0" res="-2.2332414984703064e-02" rms="1.5140752494335175e-01" purity="2.9782526195049286e-02" nType="0">
              <Node pos="l" depth="2" NCoef="0" IVar="-1" Cut="0.0000000000000000e+00" cType="1" res="3.3536928240209818e-03" rms="2.7312183380126953e-01" purity="1.1220581829547882e-01" nType="-99"/>
              <Node pos="r" depth="2" NCoef="0" IVar="-1" Cut="0.0000000000000000e+00" cType="1" res="-6.3433215022087097e-02" rms="1.0973753035068512e-01" purity="1.2680647894740105e-02" nType="-99"/>
            </Node>
          </Node>
        </BinaryTree>
        <BinaryTree type="DecisionTree" boostWeight="1.0000000000000000e+00" itree="18">
          <Node pos="s" depth="0" NCoef="0" IVar="1" Cut="5.7766947746276855e+00" cType="0" res="-1.7470557242631912e-02" rms="1.5180534124374390e-01" purity="3.7464614957571030e-02" nType="0">
            <Node pos="l" depth="1" NCoef="0" IVar="-1" Cut="0.0000000000000000e+00" cType="1" res="2.1316254511475563e-02" rms="3.5933661460876465e-01" purity="3.3878016471862793e-01" nType="-99"/>
            <Node pos="r" depth="1" NCoef="0" IVar="2" Cut="3.0401282310485840e+00" cType="0" res="-2.1048702299594879e-02" rms="1.2420342117547989e-01" purity="1.6380654647946358e-02" nType="0">
              <Node pos="l" depth="2" NCoef="0" IVar="-1" Cut="0.0000000000000000e+00" cType="1" res="-1.7617033794522285e-02" rms="1.9523583352565765e-01" purity="4.1283387690782547e-02" nType="-99"/>
              <Node pos="r" depth="2" NCoef="0" IVar="-1" Cut="0.0000000000000000e+00" cType="1" res="-7.4380233883857727e-02" rms="7.5309820473194122e-02" purity="5.7639684528112411e-03" nType="-99"/>
            </Node>
          </Node>
        </BinaryTree>
        <BinaryTree type="DecisionTree" boostWeight="1.0000000000000000e+00" itree="19">
          <Node pos="s" depth="0" NCoef="0" IVar="1" Cut="1.4916560173034668e+01" cType="0" res="-1.4609539881348610e-02" rms="1.5132071077823639e-01" purity="3.7298649549484253e-02" nType="0">
            <Node pos="l" depth="1" NCoef="0" IVar="-1" Cut="0.0000000000000000e+00" cType="1" res="4.7948010265827179e-02" rms="3.2024270296096802e-01" purity="8.5819250345230103e-01" nType="-99"/>
            <Node pos="r" depth="1" NCoef="0" IVar="0" Cut="-7.1796250343322754e-01" cType="0" res="-1.6190629452466965e-02" rms="1.4671404659748077e-01" purity="2.4878492578864098e-02" nType="0">
              <Node pos="l" depth="2" NCoef="0" IVar="-1" Cut="0.0000000000000000e+00" cType="1" res="-2.2418838925659657e-03" rms="2.3373512923717499e-01" purity="6.5562807023525238e-02" nType="-99"/>
              <Node pos="r" depth="2" NCoef="0" IVar="-1" Cut="0.0000000000000000e+00" cType="1" res="-7.1813955903053284e-02" rms="8.3312496542930603e-02" purity="7.1220234967768192e-03" nType="-99"/>
            </Node>
          </Node>
        </BinaryTree>
        <BinaryTree type="DecisionTree" boostWeight="1.0000000000000000e+00" itree="20">
          <Node pos="s" depth="0" NCoef="0" IVar="2" Cut="3.7994263172149658e+00" cType="0" res="-1.1855192482471466e-02" rms="1.5208256244659424e-01" purity="3.7704337388277054e-02" nType="0">
            <Node pos="l" depth="1" NCoef="0" IVar="-1" Cut="0.0000000000000000e+00" cType="1" res="1.3221236877143383e-02" rms="2.8172141313552856e-01" purity="1.6103866696357727e-01" nType="-99"/>
            <Node pos="r" depth="1" NCoef="0" IVar="1" Cut="1.2065931320190430e+01" cType="0" res="-1.6843726858496666e-02" rms="1.0637445747852325e-01" purity="1.2113766744732857e-02" nType="0">
              <Node pos="l" depth="2" NCoef="0" IVar="-1" Cut="0.0000000000000000e+00" cType="1" res="7.6604254543781281e-02" rms="4.8152077198028564e-01" purity="5.7820856571197510e-01" nType="-99"/>
              <Node pos="r" depth="2" NCoef="0" IVar="-1" Cut="0.0000000000000000e+00" cType="1" res="-5.4053496569395065e-02" rms="1.0540119558572769e-01" purity="1.1675733141601086e-02" nType="-99"/>
            </Node>
          </Node>
        </BinaryTree>
        <BinaryTree type="DecisionTree" boostWeight="1.0000000000000000e+00" itree="21">
          <Node pos="s" depth="0" NCoef="0" IVar="0" Cut="-6.2366908788681030e-01" cType="0" res="-9.8890978842973709e-03" rms="1.5173463523387909e-01" purity="3.7484999746084213e-02" nType="0">
            <Node pos="l" depth="1" NCoef="0" IVar="-1" Cut="0.0000000000000000e+00" cType="1" res="1.1340584605932236e-02" rms="2.5691029429435730e-01" purity="1.2483404576778412e-01" nType="-99"/>
            <Node pos="r" depth="1" NCoef="0" IVar="0" Cut="-8.0285406112670898e-01" cType="0" res="-1.5602516010403633e-02" rms="9.9511712789535522e-02" purity="1.1105023324489594e-02" nType="0">
              <Node pos="l" depth="2" NCoef="0" IVar="-1" Cut="0.0000000000000000e+00" cType="1" res="-2.2144198417663574e-02" rms="1.5809254348278046e-01" purity="2.9692297801375389e-02" nType="-99"/>
              <Node pos="r" depth="2" NCoef="0" IVar="-1" Cut="0.0000000000000000e+00" cType="1" res="-7.4123255908489227e-02" rms="7.0386551320552826e-02" purity="5.0369827076792717e-03" nType="-99"/>
            </Node>
          </Node>
        </BinaryTree>
        <BinaryTree type="DecisionTree" boostWeight="1.0000000000000000e+00" itree="22">
          <Node pos="s" depth="0" NCoef="0" IVar="0" Cut="-6.2366908788681030e-01" cType="0" res="-8.1523694097995758e-03" rms="1.5175691246986389e-01" purity="3.7746105343103409e-02" nType="0">
            <Node pos="l" depth="1" NCoef="0" IVar="-1" Cut="0.0000000000000000e+00" cType="1" res="1.0361599735915661e-02" rms="2.5824412703514099e-01" purity="1.2654899060726166e-01" nType="-99"/>
            <Node pos="r" depth="1" NCoef="0" IVar="2" Cut="7.0179729461669922e+00" cType="0" res="-1.3144748285412788e-02" rms="9.8567038774490356e-02" purity="1.0882683098316193e-02" nType="0">
              <Node pos="l" depth="2" NCoef="0" IVar="-1" Cut="0.0000000000000000e+00" cType="1" res="1.5159219503402710e-01" rms="3.3209320902824402e-01" purity="8.8172990083694458e-01" nType="-99"/>
              <Node pos="r" depth="2" NCoef="0" IVar="-1" Cut="0.0000000000000000e+00" cType="1" res="-5.2964728325605392e-02" rms="9.8404295742511749e-02" purity="1.0726450011134148e-02" nType="-99"/>
            </Node>
          </Node>
        </BinaryTree>
        <BinaryTree type="DecisionTree" boostWeight="1.0000000000000000e+00" itree="23">
          <Node pos="s" depth="0" NCoef="0" IVar="2" Cut="3.7994263172149658e+00" cType="0" res="-6.9237044081091881e-03" rms="1.5142232179641724e-01" purity="3.7627857178449631e-02" nType="0">
            <Node pos="l" depth="1" NCoef="0" IVar="-1" Cut="0.0000000000000000e+00" cType="1" res="1.3430090621113777e-02" rms="2.8210157155990601e-01" purity="1.6187874972820282e-01" nType="-99"/>
            <Node pos="r" depth="1" NCoef="0" IVar="1" Cut="3.9007208347320557e+00" cType="0" res="-1.0883319191634655e-02" rms="1.0546844452619553e-01" purity="1.1937458999454975e-02" nType="0">
              <Node pos="l" depth="2" NCoef="0" IVar="-1" Cut="0.0000000000000000e+00" cType="1" res="1.0718818753957748e-02" rms="2.4811789393424988e-01" purity="7.2844855487346649e-02" nType="-99"/>
              <Node pos="r" depth="2" NCoef="0" IVar="-1" Cut="0.0000000000000000e+00" cType="1" res="-5.3907617926597595e-02" rms="8.8392809033393860e-02" purity="7.9673398286104202e-03" nType="-99"/>
            </Node>
          </Node>
        </BinaryTree>
        <BinaryTree type="DecisionTree" boostWeight="1.0000000000000000e+00" itree="24">
          <Node pos="s" depth="0" NCoef="0" IVar="2" Cut="5.7601532936096191e+00" cType="0" res="-5.6651378981769085e-03" rms="1.5156015753746033e-01" purity="3.7806611508131027e-02" nType="0">
            <Node pos="l" depth="1" NCoef="0" IVar="-1" Cut="0.0000000000000000e+00" cType="1" res="6.1099417507648468e-02" rms="2.6474565267562866e-01" purity="8.7649738788604736e-01" nType="-99"/>
            <Node pos="r" depth="1" NCoef="0" IVar="1" Cut="2.0382253646850586e+01" cType="0" res="-6.3432860188186169e-03" rms="1.5016749501228333e-01" purity="3.1408581882715225e-02" nType="0">
              <Node pos="l" depth="2" NCoef="0" IVar="-1" Cut="0.0000000000000000e+00" cType="1" res="6.9659881293773651e-02" rms="2.5932154059410095e-01" purity="9.2338919639587402e-01" nType="-99"/>
              <Node pos="r" depth="2" NCoef="0" IVar="-1" Cut="0.0000000000000000e+00" cType="1" res="-2.0675292238593102e-02" rms="1.4922989904880524e-01" purity="2.7400311082601547e-02" nType="-99"/>
            </Node>
          </Node>
        </BinaryTree>
        <BinaryTree type="DecisionTree" boostWeight="1.0000000000000000e+00" itree="25">
          <Node pos="s" depth="0" NCoef="0" IVar="2" Cut="2.8276002407073975e+00" cType="0" res="-5.1424480043351650e-03" rms="1.5036228299140930e-01" purity="3.7428140640258789e-02" nType="0">
            <Node pos="l" depth="1" NCoef="0" IVar="-1" Cut="0.0000000000000000e+00" cType="1" res="6.8267672322690487e-03" rms="2.2297462821006775e-01" purity="8.7591677904129028e-02" nType="-99"/>
            <Node pos="r" depth="1" NCoef="0" IVar="1" Cut="3.8308045864105225e+00" cType="0" res="-1.0991510935127735e-02" rms="7.1509912610054016e-02" purity="5.2161822095513344e-03" nType="0">
              <Node pos="l" depth="2" NCoef="0" IVar="-1" Cut="0.0000000000000000e+00" cType="1" res="1.1526816524565220e-02" rms="2.0221436023712158e-01" purity="4.3790400028228760e-02" nType="-99"/>
              <Node pos="r" depth="2" NCoef="0" IVar="-1" Cut="0.0000000000000000e+00" cType="1" res="-6.4871713519096375e-02" rms="6.4991556107997894e-02" purity="4.2637479491531849e-03" nType="-99"/>
            </Node>
          </Node>
        </BinaryTree>
        <BinaryTree type="DecisionTree" boostWeight="1.0000000000000000e+00" itree="26">
          <Node pos="s" depth="0" NCoef="0" IVar="0" Cut="-7.1714264154434204e-01" cType="0" res="-3.7074666470289230e-03" rms="1.5143907070159912e-01" purity="3.7788432091474533e-02" nType="0">
            <Node pos="l" depth="1" NCoef="0" IVar="-1" Cut="0.0000000000000000e+00" cType="1" res="1.0844678618013859e-02" rms="2.3966510593891144e-01" purity="1.0420347005128860e-01" nType="-99"/>
            <Node pos="r" depth="1" NCoef="0" IVar="1" Cut="9.7014636993408203e+00" cType="0" res="-8.7020490318536758e-03" rms="8.4506697952747345e-02" purity="7.5452500022947788e-03" nType="0">
              <Node pos="l" depth="2" NCoef="0" IVar="-1" Cut="0.0000000000000000e+00" cType="1" res="-5.6596376001834869e-02" rms="3.3669993281364441e-01" purity="1.8111607432365417e-01" nType="-99"/>
              <Node pos="r" depth="2" NCoef="0" IVar="-1" Cut="0.0000000000000000e+00" cType="1" res="-5.0916608422994614e-02" rms="8.2378759980201721e-02" purity="6.9947279989719391e-03" nType="-99"/>
            </Node>
          </Node>
        </BinaryTree>
        <BinaryTree type="DecisionTree" boostWeight="1.0000000000000000e+00" itree="27">
          <Node pos="s" depth="0" NCoef="0" IVar="2" Cut="2.8276002407073975e+00" cType="0" res="-3.4638470970094204e-03" rms="1.5085983276367188e-01" purity="3.7412729114294052e-02" nType="0">
            <Node pos="l" depth="1" NCoef="0" IVar="-1" Cut="0.0000000000000000e+00" cType="1" res="7.0735816843807697e-03" rms="2.2408306598663330e-01" purity="8.7642505764961243e-02" nType="-99"/>
            <Node pos="r" depth="1" NCoef="0" IVar="2" Cut="2.2722709178924561e+00" cType="0" res="-8.3151236176490784e-03" rms="7.1371644735336304e-02" purity="5.2041243761777878e-03" nType="0">
              <Node pos="l" depth="2" NCoef="0" IVar="-1" Cut="0.0000000000000000e+00" cType="1" res="-1.9800771027803421e-02" rms="1.1388348042964935e-01" purity="1.3402448967099190e-02" nType="-99"/>
              <Node pos="r" depth="2" NCoef="0" IVar="-1" Cut="0.0000000000000000e+00" cType="1" res="-6.7246101796627045e-02" rms="5.5026825517416000e-02" purity="3.0604235362261534e-03" nType="-99"/>
            </Node>
          </Node>
        </BinaryTree>
        <BinaryTree type="DecisionTree" boostWeight="1.0000000000000000e+00" itree="28">
          <Node pos="s" depth="0" NCoef="0" IVar="1" Cut="3.0114656448364258e+01" cType="0" res="-2.7326541021466255e-03" rms="1.5119406580924988e-01" purity="3.7345875054597855e-02" nType="0">
            <Node pos="l" depth="1" NCoef="0" IVar="-1" Cut="0.0000000000000000e+00" cType="1" res="9.3038067221641541e-02" rms="1.1831651628017426e-01" purity="9.8608708381652832e-01" nType="-99"/>
            <Node pos="r" depth="1" NCoef="0" IVar="1" Cut="1.1361585855484009e+00" cType="0" res="-3.3237882889807224e-03" rms="1.5119113028049469e-01" purity="3.1416673213243484e-02" nType="0">
              <Node pos="l" depth="2" NCoef="0" IVar="-1" Cut="0.0000000000000000e+00" cType="1" res="1.0440042242407799e-02" rms="2.2410501539707184e-01" purity="7.7998623251914978e-02" nType="-99"/>
              <Node pos="r" depth="2" NCoef="0" IVar="-1" Cut="0.0000000000000000e+00" cType="1" res="-3.3571489155292511e-02" rms="1.0730415582656860e-01" purity="1.2185101397335529e-02" nType="-99"/>
            </Node>
          </Node>
        </BinaryTree>
        <BinaryTree type="DecisionTree" boostWeight="1.0000000000000000e+00" itree="29">
          <Node pos="s" depth="0" NCoef="0" IVar="0" Cut="-5.2862399816513062e-01" cType="0" res="-2.3049551527947187e-03" rms="1.5082529187202454e-01" purity="3.7403445690870285e-02" nType="0">
            <Node pos="l" depth="1" NCoef="0" IVar="-1" Cut="0.0000000000000000e+00" cType="1" res="1.2523262761533260e-02" rms="2.7025672793388367e-01" purity="1.4515312016010284e-01" nType="-99"/>
            <Node pos="r" depth="1" NCoef="0" IVar="2" Cut="5.3992347717285156e+00" cType="0" res="-4.9784993752837181e-03" rms="1.1005012691020966e-01" purity="1.4700649306178093e-02" nType="0">
              <Node pos="l" depth="2" NCoef="0" IVar="-1" Cut="0.0000000000000000e+00" cType="1" res="5.2416119724512100e-02" rms="3.7596696615219116e-01" purity="5.4284858703613281e-01" nType="-99"/>
              <Node pos="r" depth="2" NCoef="0" IVar="-1" Cut="0.0000000000000000e+00" cType="1" res="-2.7604591101408005e-02" rms="1.0822185128927231e-01" purity="1.3150781393051147e-02" nType="-99"/>
            </Node>
          </Node>
        </BinaryTree>
        <BinaryTree type="DecisionTree" boostWeight="1.0000000000000000e+00" itree="30">
          <Node pos="s" depth="0" NCoef="0" IVar="1" Cut="2.2020347595214844e+01" cType="0" res="-1.9322338048368692e-03" rms="1.5075208246707916e-01" purity="3.7620466202497482e-02" nType="0">
            <Node pos="l" depth="1" NCoef="0" IVar="-1" Cut="0.0000000000000000e+00" cType="1" res="7.6052621006965637e-02" rms="1.7166592180728912e-01" purity="9.6819967031478882e-01" nType="-99"/>
            <Node pos="r" depth="1" NCoef="0" IVar="2" Cut="3.0401282310485840e+00" cType="0" res="-2.6947737205773592e-03" rms="1.5033417940139771e-01" purity="2.8871543705463409e-02" nType="0">
              <Node pos="l" depth="2" NCoef="0" IVar="-1" Cut="0.0000000000000000e+00" cType="1" res="5.4362923838198185e-03" rms="2.3539875447750092e-01" purity="7.3898538947105408e-02" nType="-99"/>
              <Node pos="r" depth="2" NCoef="0" IVar="-1" Cut="0.0000000000000000e+00" cType="1" res="-4.2347636073827744e-02" rms="7.8120589256286621e-02" purity="6.2696365639567375e-03" nType="-99"/>
            </Node>
          </Node>
        </BinaryTree>
        <BinaryTree type="DecisionTree" boostWeight="1.0000000000000000e+00" itree="31">
          <Node pos="s" depth="0" NCoef="0" IVar="1" Cut="1.7736200332641602e+01" cType="0" res="-1.6850545071065426e-03" rms="1.5103954076766968e-01" purity="3.7387281656265259e-02" nType="0">
            <Node pos="l" depth="1" NCoef="0" IVar="-1" Cut="0.0000000000000000e+00" cType="1" res="4.2611360549926758e-02" rms="2.5904724001884460e-01" purity="9.1808122396469116e-01" nType="-99"/>
            <Node pos="r" depth="1" NCoef="0" IVar="0" Cut="-8.1140786409378052e-01" cType="0" res="-2.3167268373072147e-03" rms="1.4916554093360901e-01" purity="2.6873575523495674e-02" nType="0">
              <Node pos="l" depth="2" NCoef="0" IVar="-1" Cut="0.0000000000000000e+00" cType="1" res="5.0962138921022415e-03" rms="2.1355339884757996e-01" purity="5.6284248828887939e-02" nType="-99"/>
              <Node pos="r" depth="2" NCoef="0" IVar="-1" Cut="0.0000000000000000e+00" cType="1" res="-5.3158581256866455e-02" rms="6.8139567971229553e-02" purity="4.7403341159224510e-03" nType="-99"/>
            </Node>
          </Node>
        </BinaryTree>
        <BinaryTree type="DecisionTree" boostWeight="1.0000000000000000e+00" itree="32">
          <Node pos="s" depth="0" NCoef="0" IVar="0" Cut="2.2544373571872711e-01" cType="0" res="-1.5823038993403316e-03" rms="1.5030591189861298e-01" purity="3.7312176078557968e-02" nType="0">
            <Node pos="l" depth="1" NCoef="0" IVar="-1" Cut="0.0000000000000000e+00" cType="1" res="-4.3332003057003021e-02" rms="2.9820966720581055e-01" purity="9.3034505844116211e-02" nType="-99"/>
            <Node pos="r" depth="1" NCoef="0" IVar="1" Cut="1.7736200332641602e+01" cType="0" res="-1.0010241530835629e-03" rms="1.4709529280662537e-01" purity="3.6530639976263046e-02" nType="0">
              <Node pos="l" depth="2" NCoef="0" IVar="-1" Cut="0.0000000000000000e+00" cType="1" res="5.0255201756954193e-02" rms="2.3468974232673645e-01" purity="9.3324244022369385e-01" nType="-99"/>
              <Node pos="r" depth="2" NCoef="0" IVar="-1" Cut="0.0000000000000000e+00" cType="1" res="-6.3758557662367821e-03" rms="1.4558397233486176e-01" purity="2.5768702849745750e-02" nType="-99"/>
            </Node>
          </Node>
        </BinaryTree>
        <BinaryTree type="DecisionTree" boostWeight="1.0000000000000000e+00" itree="33">
          <Node pos="s" depth="0" NCoef="0" IVar="2" Cut="3.9549281597137451e+00" cType="0" res="-1.0551753221079707e-03" rms="1.4984804391860962e-01" purity="3.7515435367822647e-02" nType="0">
            <Node pos="l" depth="1" NCoef="0" IVar="-1" Cut="0.0000000000000000e+00" cType="1" res="1.1768151074647903e-02" rms="2.8908690810203552e-01" purity="1.8381649255752563e-01" nType="-99"/>
            <Node pos="r" depth="1" NCoef="0" IVar="1" Cut="4.3528943061828613e+00" cType="0" res="-2.9807635582983494e-03" rms="1.1148041486740112e-01" purity="1.3577046804130077e-02" nType="0">
              <Node pos="l" depth="2" NCoef="0" IVar="-1" Cut="0.0000000000000000e+00" cType="1" res="1.3773274607956409e-02" rms="2.7432954311370850e-01" purity="9.2735975980758667e-02" nType="-99"/>
              <Node pos="r" depth="2" NCoef="0" IVar="-1" Cut="0.0000000000000000e+00" cType="1" res="-2.6338305324316025e-02" rms="9.3646004796028137e-02" purity="8.9827934280037880e-03" nType="-99"/>
            </Node>
          </Node>
        </BinaryTree>
        <BinaryTree type="DecisionTree" boostWeight="1.0000000000000000e+00" itree="34">
          <Node pos="s" depth="0" NCoef="0" IVar="0" Cut="-7.1717125177383423e-01" cType="0" res="-4.9102009506896138e-04" rms="1.5116317570209503e-01" purity="3.7975195795297623e-02" nType="0">
            <Node pos="l" depth="1" NCoef="0" IVar="-1" Cut="0.0000000000000000e+00" cType="1" res="9.3457819893956184e-03" rms="2.3910583555698395e-01" purity="1.0440889745950699e-01" nType="-99"/>
            <Node pos="r" depth="1" NCoef="0" IVar="2" Cut="6.1155033111572266e+00" cType="0" res="-3.4526987001299858e-03" rms="8.4263376891613007e-02" purity="7.5429198332130909e-03" nType="0">
              <Node pos="l" depth="2" NCoef="0" IVar="-1" Cut="0.0000000000000000e+00" cType="1" res="1.1843577772378922e-01" rms="4.2030864953994751e-01" purity="7.5312310457229614e-01" nType="-99"/>
              <Node pos="r" depth="2" NCoef="0" IVar="-1" Cut="0.0000000000000000e+00" cType="1" res="-3.0818033963441849e-02" rms="8.3978541195392609e-02" purity="7.3697366751730442e-03" nType="-99"/>
            </Node>
          </Node>
        </BinaryTree>
        <BinaryTree type="DecisionTree" boostWeight="1.0000000000000000e+00" itree="35">
          <Node pos="s" depth="0" NCoef="0" IVar="2" Cut="2.3953623771667480e+00" cType="0" res="-9.8149070981889963e-04" rms="1.5005348622798920e-01" purity="3.7018600851297379e-02" nType="0">
            <Node pos="l" depth="1" NCoef="0" IVar="-1" Cut="0.0000000000000000e+00" cType="1" res="5.4910681210458279e-03" rms="2.0568600296974182e-01" purity="7.1947813034057617e-02" nType="-99"/>
            <Node pos="r" depth="1" NCoef="0" IVar="1" Cut="3.2014970779418945e+00" cType="0" res="-4.3880720622837543e-03" rms="5.9704165905714035e-02" purity="3.6124580074101686e-03" nType="0">
              <Node pos="l" depth="2" NCoef="0" IVar="-1" Cut="0.0000000000000000e+00" cType="1" res="2.9699264094233513e-02" rms="1.6018585860729218e-01" purity="2.6890594512224197e-02" nType="-99"/>
              <Node pos="r" depth="2" NCoef="0" IVar="-1" Cut="0.0000000000000000e+00" cType="1" res="-5.3091336041688919e-02" rms="5.5231515318155289e-02" purity="3.0739440117031336e-03" nType="-99"/>
            </Node>
          </Node>
        </BinaryTree>
        <BinaryTree type="DecisionTree" boostWeight="1.0000000000000000e+00" itree="36">
          <Node pos="s" depth="0" NCoef="0" IVar="0" Cut="1.2891599535942078e-01" cType="0" res="-5.7120487326756120e-04" rms="1.5051595866680145e-01" purity="3.7381399422883987e-02" nType="0">
            <Node pos="l" depth="1" NCoef="0" IVar="-1" Cut="0.0000000000000000e+00" cType="1" res="-2.9708582907915115e-02" rms="2.9762572050094604e-01" purity="1.0246605426073074e-01" nType="-99"/>
            <Node pos="r" depth="1" NCoef="0" IVar="2" Cut="5.0470213890075684e+00" cType="0" res="-1.1191591511305887e-05" rms="1.4594583213329315e-01" purity="3.6059379577636719e-02" nType="0">
              <Node pos="l" depth="2" NCoef="0" IVar="-1" Cut="0.0000000000000000e+00" cType="1" res="3.4140158444643021e-02" rms="3.2556208968162537e-01" purity="6.2416046857833862e-01" nType="-99"/>
              <Node pos="r" depth="2" NCoef="0" IVar="-1" Cut="0.0000000000000000e+00" cType="1" res="-3.6021720152348280e-03" rms="1.4017052948474884e-01" purity="2.4856302887201309e-02" nType="-99"/>
            </Node>
          </Node>
        </BinaryTree>
        <BinaryTree type="DecisionTree" boostWeight="1.0000000000000000e+00" itree="37">
          <Node pos="s" depth="0" NCoef="0" IVar="1" Cut="3.4663051605224609e+01" cType="0" res="-7.3568627703934908e-04" rms="1.4951027929782867e-01" purity="3.7233155220746994e-02" nType="0">
            <Node pos="l" depth="1" NCoef="0" IVar="-1" Cut="0.0000000000000000e+00" cType="1" res="8.9830361306667328e-02" rms="8.2954771816730499e-02" purity="9.9298477172851562e-01" nType="-99"/>
            <Node pos="r" depth="1" NCoef="0" IVar="0" Cut="-8.1181240081787109e-01" cType="0" res="-9.8278501536697149e-04" rms="1.4972925186157227e-01" purity="3.2430961728096008e-02" nType="0">
              <Node pos="l" depth="2" NCoef="0" IVar="-1" Cut="0.0000000000000000e+00" cType="1" res="4.8211053945124149e-03" rms="2.1393571794033051e-01" purity="6.8786583840847015e-02" nType="-99"/>
              <Node pos="r" depth="2" NCoef="0" IVar="-1" Cut="0.0000000000000000e+00" cType="1" res="-4.1529785841703415e-02" rms="6.7810021340847015e-02" purity="4.7088693827390671e-03" nType="-99"/>
            </Node>
          </Node>
        </BinaryTree>
        <BinaryTree type="DecisionTree" boostWeight="1.0000000000000000e+00" itree="38">
          <Node pos="s" depth="0" NCoef="0" IVar="0" Cut="1.3118223845958710e-01" cType="0" res="-4.6814794768579304e-04" rms="1.5011025965213776e-01" purity="3.7550441920757294e-02" nType="0">
            <Node pos="l" depth="1" NCoef="0" IVar="-1" Cut="0.0000000000000000e+00" cType="1" res="-2.5999715551733971e-02" rms="2.9680114984512329e-01" purity="1.0439748317003250e-01" nType="-99"/>
            <Node pos="r" depth="1" NCoef="0" IVar="1" Cut="1.3379044532775879e+00" cType="0" res="1.0970709809043910e-05" rms="1.4559066295623779e-01" purity="3.6199524998664856e-02" nType="0">
              <Node pos="l" depth="2" NCoef="0" IVar="-1" Cut="0.0000000000000000e+00" cType="1" res="1.6076946631073952e-02" rms="2.2355738282203674e-01" purity="1.0462206602096558e-01" nType="-99"/>
              <Node pos="r" depth="2" NCoef="0" IVar="-1" Cut="0.0000000000000000e+00" cType="1" res="-1.9829029217362404e-02" rms="1.0323605686426163e-01" purity="1.1230754666030407e-02" nType="-99"/>
            </Node>
          </Node>
        </BinaryTree>
        <BinaryTree type="DecisionTree" boostWeight="1.0000000000000000e+00" itree="39">
          <Node pos="s" depth="0" NCoef="0" IVar="1" Cut="1.9231001138687134e+00" cType="0" res="-2.8813967946916819e-04" rms="1.5066228806972504e-01" purity="3.7723239511251450e-02" nType="0">
            <Node pos="l" depth="1" NCoef="0" IVar="-1" Cut="0.0000000000000000e+00" cType="1" res="1.0061070322990417e-02" rms="2.5080317258834839e-01" purity="1.3031008839607239e-01" nType="-99"/>
            <Node pos="r" depth="1" NCoef="0" IVar="2" Cut="7.0491976737976074e+00" cType="0" res="-2.2094070445746183e-03" rms="1.0788426548242569e-01" purity="1.2291502207517624e-02" nType="0">
              <Node pos="l" depth="2" NCoef="0" IVar="-1" Cut="0.0000000000000000e+00" cType="1" res="1.3610368967056274e-01" rms="4.0089496970176697e-01" purity="7.9477465152740479e-01" nType="-99"/>
              <Node pos="r" depth="2" NCoef="0" IVar="-1" Cut="0.0000000000000000e+00" cType="1" res="-1.4347216114401817e-02" rms="1.0769596695899963e-01" purity="1.2170503847301006e-02" nType="-99"/>
            </Node>
          </Node>
        </BinaryTree>
        <BinaryTree type="DecisionTree" boostWeight="1.0000000000000000e+00" itree="40">
          <Node pos="s" depth="0" NCoef="0" IVar="0" Cut="2.2545419633388519e-01" cType="0" res="-3.4671102184802294e-04" rms="1.5019702911376953e-01" purity="3.7661515176296234e-02" nType="0">
            <Node pos="l" depth="1" NCoef="0" IVar="-1" Cut="0.0000000000000000e+00" cType="1" res="-3.2600436359643936e-02" rms="2.9384607076644897e-01" purity="9.0985178947448730e-02" nType="-99"/>
            <Node pos="r" depth="1" NCoef="0" IVar="2" Cut="3.0625288486480713e+00" cType="0" res="4.8097921535372734e-05" rms="1.4719417691230774e-01" purity="3.6924533545970917e-02" nType="0">
              <Node pos="l" depth="2" NCoef="0" IVar="-1" Cut="0.0000000000000000e+00" cType="1" res="8.2393605262041092e-03" rms="2.3086266219615936e-01" purity="9.9139556288719177e-02" nType="-99"/>
              <Node pos="r" depth="2" NCoef="0" IVar="-1" Cut="0.0000000000000000e+00" cType="1" res="-2.3866156116127968e-02" rms="7.7774837613105774e-02" purity="6.2403478659689426e-03" nType="-99"/>
            </Node>
          </Node>
        </BinaryTree>
        <BinaryTree type="DecisionTree" boostWeight="1.0000000000000000e+00" itree="41">
          <Node pos="s" depth="0" NCoef="0" IVar="0" Cut="1.3119401037693024e-01" cType="0" res="-2.6163877919316292e-04" rms="1.4974400401115417e-01" purity="3.7723056972026825e-02" nType="0">
            <Node pos="l" depth="1" NCoef="0" IVar="-1" Cut="0.0000000000000000e+00" cType="1" res="-2.4113984778523445e-02" rms="2.8909209370613098e-01" purity="9.9147893488407135e-02" nType="-99"/>
            <Node pos="r" depth="1" NCoef="0" IVar="2" Cut="4.4105033874511719e+00" cType="0" res="1.5703139069955796e-04" rms="1.4550811052322388e-01" purity="3.6475639790296555e-02" nType="0">
              <Node pos="l" depth="2" NCoef="0" IVar="-1" Cut="0.0000000000000000e+00" cType="1" res="1.3039353303611279e-02" rms="3.1184020638465881e-01" purity="3.0000302195549011e-01" nType="-99"/>
              <Node pos="r" depth="2" NCoef="0" IVar="-1" Cut="0.0000000000000000e+00" cType="1" res="-4.0899002924561501e-03" rms="1.2635973095893860e-01" purity="1.8491150811314583e-02" nType="-99"/>
            </Node>
          </Node>
        </BinaryTree>
        <BinaryTree type="DecisionTree" boostWeight="1.0000000000000000e+00" itree="42">
          <Node pos="s" depth="0" NCoef="0" IVar="0" Cut="-9.0569424629211426e-01" cType="0" res="-9.1422196419443935e-05" rms="1.5038554370403290e-01" purity="3.7585046142339706e-02" nType="0">
            <Node pos="l" depth="1" NCoef="0" IVar="-1" Cut="0.0000000000000000e+00" cType="1" res="5.2957199513912201e-03" rms="1.8481710553169250e-01" purity="5.7638172060251236e-02" nType="-99"/>
            <Node pos="r" depth="1" NCoef="0" IVar="1" Cut="5.5450434684753418e+00" cType="0" res="-3.7593485321849585e-03" rms="4.7953996807336807e-02" purity="2.3228356149047613e-03" nType="0">
              <Node pos="l" depth="2" NCoef="0" IVar="-1" Cut="0.0000000000000000e+00" cType="1" res="-8.0407261848449707e-02" rms="1.3671152293682098e-01" purity="1.6753563657402992e-02" nType="-99"/>
              <Node pos="r" depth="2" NCoef="0" IVar="-1" Cut="0.0000000000000000e+00" cType="1" res="-5.8750301599502563e-02" rms="4.7023545950651169e-02" purity="2.2495298180729151e-03" nType="-99"/>
            </Node>
          </Node>
        </BinaryTree>
        <BinaryTree type="DecisionTree" boostWeight="1.0000000000000000e+00" itree="43">
          <Node pos="s" depth="0" NCoef="0" IVar="2" Cut="6.7149043083190918e+00" cType="0" res="-2.6854797033593059e-04" rms="1.5001475811004639e-01" purity="3.7320371717214584e-02" nType="0">
            <Node pos="l" depth="1" NCoef="0" IVar="-1" Cut="0.0000000000000000e+00" cType="1" res="6.2844447791576385e-02" rms="1.9602090120315552e-01" purity="9.5038431882858276e-01" nType="-99"/>
            <Node pos="r" depth="1" NCoef="0" IVar="1" Cut="-5.5185599327087402e+00" cType="1" res="-3.8915686309337616e-04" rms="1.4983521401882172e-01" purity="3.4504011273384094e-02" nType="0">
              <Node pos="l" depth="2" NCoef="0" IVar="-1" Cut="0.0000000000000000e+00" cType="1" res="-2.7299348264932632e-02" rms="1.8243207037448883e-01" purity="3.5775404423475266e-02" nType="-99"/>
              <Node pos="r" depth="2" NCoef="0" IVar="-1" Cut="0.0000000000000000e+00" cType="1" res="1.2570017715916038e-03" rms="1.4793300628662109e-01" purity="3.4438703209161758e-02" nType="-99"/>
            </Node>
          </Node>
        </BinaryTree>
        <BinaryTree type="DecisionTree" boostWeight="1.0000000000000000e+00" itree="44">
          <Node pos="s" depth="0" NCoef="0" IVar="2" Cut="2.4152829647064209e+00" cType="0" res="3.2486018608324230e-04" rms="1.5125471353530884e-01" purity="3.8026817142963409e-02" nType="0">
            <Node pos="l" depth="1" NCoef="0" IVar="-1" Cut="0.0000000000000000e+00" cType="1" res="6.9056493230164051e-03" rms="2.0818279683589935e-01" purity="7.4572078883647919e-02" nType="-99"/>
            <Node pos="r" depth="1" NCoef="0" IVar="1" Cut="3.5606384277343750e+00" cType="0" res="-2.3958126548677683e-03" rms="6.0386452823877335e-02" purity="3.7067474331706762e-03" nType="0">
              <Node pos="l" depth="2" NCoef="0" IVar="-1" Cut="0.0000000000000000e+00" cType="1" res="4.4272180646657944e-02" rms="1.8748293817043304e-01" purity="3.7511143833398819e-02" nType="-99"/>
              <Node pos="r" depth="2" NCoef="0" IVar="-1" Cut="0.0000000000000000e+00" cType="1" res="-4.0000531822443008e-02" rms="5.5899031460285187e-02" purity="3.1507464591413736e-03" nType="-99"/>
            </Node>
          </Node>
        </BinaryTree>
        <BinaryTree type="DecisionTree" boostWeight="1.0000000000000000e+00" itree="45">
          <Node pos="s" depth="0" NCoef="0" IVar="0" Cut="-5.7340756058692932e-02" cType="0" res="-1.1749774421332404e-04" rms="1.5029051899909973e-01" purity="3.7678331136703491e-02" nType="0">
            <Node pos="l" depth="1" NCoef="0" IVar="-1" Cut="0.0000000000000000e+00" cType="1" res="-1.2637847103178501e-02" rms="2.9213517904281616e-01" purity="1.2288005650043488e-01" nType="-99"/>
            <Node pos="r" depth="1" NCoef="0" IVar="2" Cut="5.0972962379455566e+00" cType="0" res="3.3043813891708851e-04" rms="1.4161577820777893e-01" purity="3.4247454255819321e-02" nType="0">
              <Node pos="l" depth="2" NCoef="0" IVar="-1" Cut="0.0000000000000000e+00" cType="1" res="2.2499479353427887e-02" rms="3.1004789471626282e-01" purity="6.5398347377777100e-01" nType="-99"/>
              <Node pos="r" depth="2" NCoef="0" IVar="-1" Cut="0.0000000000000000e+00" cType="1" res="-4.7429741243831813e-04" rms="1.3710297644138336e-01" purity="2.4096623063087463e-02" nType="-99"/>
            </Node>
          </Node>
        </BinaryTree>
        <BinaryTree type="DecisionTree" boostWeight="1.0000000000000000e+00" itree="46">
          <Node pos="s" depth="0" NCoef="0" IVar="0" Cut="-5.7340756058692932e-02" cType="0" res="-3.7632146268151700e-04" rms="1.4994879066944122e-01" purity="3.7346821278333664e-02" nType="0">
            <Node pos="l" depth="1" NCoef="0" IVar="-1" Cut="0.0000000000000000e+00" cType="1" res="-1.3769268989562988e-02" rms="2.9114511609077454e-01" purity="1.2349826842546463e-01" nType="-99"/>
            <Node pos="r" depth="1" NCoef="0" IVar="0" Cut="-3.7157669663429260e-01" cType="0" res="9.6868141554296017e-05" rms="1.4134347438812256e-01" purity="3.3887449651956558e-02" nType="0">
              <Node pos="l" depth="2" NCoef="0" IVar="-1" Cut="0.0000000000000000e+00" cType="1" res="1.2134058400988579e-02" rms="2.7079176902770996e-01" purity="1.8205007910728455e-01" nType="-99"/>
              <Node pos="r" depth="2" NCoef="0" IVar="-1" Cut="0.0000000000000000e+00" cType="1" res="-3.6443574354052544e-03" rms="1.2581829726696014e-01" purity="2.2392209619283676e-02" nType="-99"/>
            </Node>
          </Node>
        </BinaryTree>
        <BinaryTree type="DecisionTree" boostWeight="1.0000000000000000e+00" itree="47">
          <Node pos="s" depth="0" NCoef="0" IVar="1" Cut="3.0114656448364258e+01" cType="0" res="-1.9495806191116571e-04" rms="1.4956927299499512e-01" purity="3.7561863660812378e-02" nType="0">
            <Node pos="l" depth="1" NCoef="0" IVar="-1" Cut="0.0000000000000000e+00" cType="1" res="6.7356273531913757e-02" rms="1.1303624510765076e-01" purity="9.8684972524642944e-01" nType="-99"/>
            <Node pos="r" depth="1" NCoef="0" IVar="1" Cut="-4.6582980155944824e+00" cType="1" res="-3.7337371031753719e-04" rms="1.4975681900978088e-01" purity="3.1509973108768463e-02" nType="0">
              <Node pos="l" depth="2" NCoef="0" IVar="-1" Cut="0.0000000000000000e+00" cType="1" res="-2.2156069055199623e-02" rms="1.7586566507816315e-01" purity="3.3766672015190125e-02" nType="-99"/>
              <Node pos="r" depth="2" NCoef="0" IVar="-1" Cut="0.0000000000000000e+00" cType="1" res="1.2910314835608006e-03" rms="1.4768259227275848e-01" purity="3.1348094344139099e-02" nType="-99"/>
            </Node>
          </Node>
        </BinaryTree>
        <BinaryTree type="DecisionTree" boostWeight="1.0000000000000000e+00" itree="48">
          <Node pos="s" depth="0" NCoef="0" IVar="1" Cut="8.2583751678466797e+00" cType="0" res="-2.0314850553404540e-04" rms="1.5002003312110901e-01" purity="3.7415280938148499e-02" nType="0">
            <Node pos="l" depth="1" NCoef="0" IVar="-1" Cut="0.0000000000000000e+00" cType="1" res="-9.8906550556421280e-03" rms="3.8228386640548706e-01" purity="5.0405758619308472e-01" nType="-99"/>
            <Node pos="r" depth="1" NCoef="0" IVar="2" Cut="7.0491976737976074e+00" cType="0" res="4.6110231778584421e-04" rms="1.3299530744552612e-01" purity="1.9273960962891579e-02" nType="0">
              <Node pos="l" depth="2" NCoef="0" IVar="-1" Cut="0.0000000000000000e+00" cType="1" res="8.9549340307712555e-02" rms="3.7720489501953125e-01" purity="8.1121939420700073e-01" nType="-99"/>
              <Node pos="r" depth="2" NCoef="0" IVar="-1" Cut="0.0000000000000000e+00" cType="1" res="2.0727470982819796e-03" rms="1.3285833597183228e-01" purity="1.9106060266494751e-02" nType="-99"/>
            </Node>
          </Node>
        </BinaryTree>
        <BinaryTree type="DecisionTree" boostWeight="1.0000000000000000e+00" itree="49">
          <Node pos="s" depth="0" NCoef="0" IVar="2" Cut="1.6241168975830078e+00" cType="0" res="-3.1940871849656105e-04" rms="1.4918838441371918e-01" purity="3.7258852273225784e-02" nType="0">
            <Node pos="l" depth="1" NCoef="0" IVar="-1" Cut="0.0000000000000000e+00" cType="1" res="3.0828956514596939e-03" rms="1.8213208019733429e-01" purity="5.6141257286071777e-02" nType="-99"/>
            <Node pos="r" depth="1" NCoef="0" IVar="0" Cut="-6.3649958372116089e-01" cType="0" res="-3.0574467964470387e-03" rms="4.1112508624792099e-02" purity="1.6986770788207650e-03" nType="0">
              <Node pos="l" depth="2" NCoef="0" IVar="-1" Cut="0.0000000000000000e+00" cType="1" res="-3.5913392901420593e-02" rms="9.3401461839675903e-02" purity="8.8445246219635010e-03" nType="-99"/>
              <Node pos="r" depth="2" NCoef="0" IVar="-1" Cut="0.0000000000000000e+00" cType="1" res="-6.1065193265676498e-02" rms="3.5706393420696259e-02" purity="1.2774517526850104e-03" nType="-99"/>
            </Node>
          </Node>
        </BinaryTree>
        <BinaryTree type="DecisionTree" boostWeight="1.0000000000000000e+00" itree="50">
          <Node pos="s" depth="0" NCoef="0" IVar="0" Cut="4.1396671533584595e-01" cType="0" res="-1.2549226812552661e-04" rms="1.4931349456310272e-01" purity="3.7620522081851959e-02" nType="0">
            <Node pos="l" depth="1" NCoef="0" IVar="-1" Cut="0.0000000000000000e+00" cType="1" res="-3.0831784009933472e-02" rms="2.8691485524177551e-01" purity="8.1513270735740662e-02" nType="-99"/>
            <Node pos="r" depth="1" NCoef="0" IVar="0" Cut="-8.6531645059585571e-01" cType="0" res="3.3803520636865869e-05" rms="1.4800395071506500e-01" purity="3.7338722497224808e-02" nType="0">
              <Node pos="l" depth="2" NCoef="0" IVar="-1" Cut="0.0000000000000000e+00" cType="1" res="4.7201961278915405e-03" rms="1.9503837823867798e-01" purity="6.6895738244056702e-02" nType="-99"/>
              <Node pos="r" depth="2" NCoef="0" IVar="-1" Cut="0.0000000000000000e+00" cType="1" res="-3.7795230746269226e-02" rms="5.8379329741001129e-02" purity="3.4719523973762989e-03" nType="-99"/>
            </Node>
          </Node>
        </BinaryTree>
        <BinaryTree type="DecisionTree" boostWeight="1.0000000000000000e+00" itree="51">
          <Node pos="s" depth="0" NCoef="0" IVar="1" Cut="-4.5118621826171875e+01" cType="1" res="2.0446191774681211e-04" rms="1.5040372312068939e-01" purity="3.7656527012586594e-02" nType="0">
            <Node pos="l" depth="1" NCoef="0" IVar="-1" Cut="0.0000000000000000e+00" cType="1" res="2.4300062656402588e-01" rms="2.5166758894920349e-01" purity="9.6062433719635010e-01" nType="-99"/>
            <Node pos="r" depth="1" NCoef="0" IVar="2" Cut="1.8361293077468872e+00" cType="0" res="1.9594618061091751e-04" rms="1.5038663148880005e-01" purity="3.7641584873199463e-02" nType="0">
              <Node pos="l" depth="2" NCoef="0" IVar="-1" Cut="0.0000000000000000e+00" cType="1" res="4.7331089153885841e-03" rms="1.8934781849384308e-01" purity="6.0500573366880417e-02" nType="-99"/>
              <Node pos="r" depth="2" NCoef="0" IVar="-1" Cut="0.0000000000000000e+00" cType="1" res="-4.8269227147102356e-02" rms="4.4000502675771713e-02" purity="1.9465113291516900e-03" nType="-99"/>
            </Node>
          </Node>
        </BinaryTree>
        <BinaryTree type="DecisionTree" boostWeight="1.0000000000000000e+00" itree="52">
          <Node pos="s" depth="0" NCoef="0" IVar="1" Cut="-6.0843157768249512e+00" cType="1" res="1.1162304144818336e-04" rms="1.5076895058155060e-01" purity="3.7846371531486511e-02" nType="0">
            <Node pos="l" depth="1" NCoef="0" IVar="-1" Cut="0.0000000000000000e+00" cType="1" res="-2.1287715062499046e-02" rms="1.9261670112609863e-01" purity="4.0317311882972717e-02" nType="-99"/>
            <Node pos="r" depth="1" NCoef="0" IVar="0" Cut="2.2191284596920013e-01" cType="0" res="5.8143405476585031e-04" rms="1.4874033629894257e-01" purity="3.7742838263511658e-02" nType="0">
              <Node pos="l" depth="2" NCoef="0" IVar="-1" Cut="0.0000000000000000e+00" cType="1" res="-2.6199780404567719e-02" rms="3.0295509099960327e-01" purity="9.9779866635799408e-02" nType="-99"/>
              <Node pos="r" depth="2" NCoef="0" IVar="-1" Cut="0.0000000000000000e+00" cType="1" res="3.6076440010219812e-03" rms="1.4582638442516327e-01" purity="3.6984208971261978e-02" nType="-99"/>
            </Node>
          </Node>
        </BinaryTree>
        <BinaryTree type="DecisionTree" boostWeight="1.0000000000000000e+00" itree="53">
          <Node pos="s" depth="0" NCoef="0" IVar="1" Cut="8.2583751678466797e+00" cType="0" res="-2.3341437918134034e-04" rms="1.4944472908973694e-01" purity="3.7093702703714371e-02" nType="0">
            <Node pos="l" depth="1" NCoef="0" IVar="-1" Cut="0.0000000000000000e+00" cType="1" res="-1.1516909115016460e-02" rms="3.7940877676010132e-01" purity="5.0267261266708374e-01" nType="-99"/>
            <Node pos="r" depth="1" NCoef="0" IVar="1" Cut="8.6846631765365601e-01" cType="0" res="5.2626605611294508e-04" rms="1.3286685943603516e-01" purity="1.9236925989389420e-02" nType="0">
              <Node pos="l" depth="2" NCoef="0" IVar="-1" Cut="0.0000000000000000e+00" cType="1" res="1.3015663251280785e-02" rms="1.7720143496990204e-01" purity="3.4985132515430450e-02" nType="-99"/>
              <Node pos="r" depth="2" NCoef="0" IVar="-1" Cut="0.0000000000000000e+00" cType="1" res="-7.7715665102005005e-03" rms="1.0712227225303650e-01" purity="1.2168972752988338e-02" nType="-99"/>
            </Node>
          </Node>
        </BinaryTree>
        <BinaryTree type="DecisionTree" boostWeight="1.0000000000000000e+00" itree="54">
          <Node pos="s" depth="0" NCoef="0" IVar="2" Cut="4.7712521553039551e+00" cType="0" res="-2.7634724392555654e-04" rms="1.4935189485549927e-01" purity="3.7349931895732880e-02" nType="0">
            <Node pos="l" depth="1" NCoef="0" IVar="-1" Cut="0.0000000000000000e+00" cType="1" res="-6.4556472934782505e-03" rms="3.3591553568840027e-01" purity="4.3940639495849609e-01" nType="-99"/>
            <Node pos="r" depth="1" NCoef="0" IVar="2" Cut="4.4009861946105957e+00" cType="0" res="2.0743967979797162e-05" rms="1.3815984129905701e-01" purity="2.3070957511663437e-02" nType="0">
              <Node pos="l" depth="2" NCoef="0" IVar="-1" Cut="0.0000000000000000e+00" cType="1" res="1.6230897977948189e-02" rms="3.0344885587692261e-01" purity="1.3779026269912720e-01" nType="-99"/>
              <Node pos="r" depth="2" NCoef="0" IVar="-1" Cut="0.0000000000000000e+00" cType="1" res="-2.7172537520527840e-03" rms="1.2765616178512573e-01" purity="1.8695741891860962e-02" nType="-99"/>
            </Node>
          </Node>
        </BinaryTree>
        <BinaryTree type="DecisionTree" boostWeight="1.0000000000000000e+00" itree="55">
          <Node pos="s" depth="0" NCoef="0" IVar="2" Cut="6.7305564880371094e+00" cType="0" res="-3.8472539017675444e-05" rms="1.4962325990200043e-01" purity="3.7695251405239105e-02" nType="0">
            <Node pos="l" depth="1" NCoef="0" IVar="-1" Cut="0.0000000000000000e+00" cType="1" res="5.5345363914966583e-02" rms="1.7950287461280823e-01" purity="9.6020370721817017e-01" nType="-99"/>
            <Node pos="r" depth="1" NCoef="0" IVar="1" Cut="8.3362016677856445e+00" cType="0" res="-1.2516519927885383e-04" rms="1.4951208233833313e-01" purity="3.4801147878170013e-02" nType="0">
              <Node pos="l" depth="2" NCoef="0" IVar="-1" Cut="0.0000000000000000e+00" cType="1" res="-8.1510618329048157e-03" rms="3.9290273189544678e-01" purity="4.7770231962203979e-01" nType="-99"/>
              <Node pos="r" depth="2" NCoef="0" IVar="-1" Cut="0.0000000000000000e+00" cType="1" res="2.0198104903101921e-03" rms="1.3294568657875061e-01" purity="1.9130423665046692e-02" nType="-99"/>
            </Node>
          </Node>
        </BinaryTree>
        <BinaryTree type="DecisionTree" boostWeight="1.0000000000000000e+00" itree="56">
          <Node pos="s" depth="0" NCoef="0" IVar="0" Cut="-9.0569424629211426e-01" cType="0" res="1.3713257794734091e-04" rms="1.5023647248744965e-01" purity="3.7357356399297714e-02" nType="0">
            <Node pos="l" depth="1" NCoef="0" IVar="-1" Cut="0.0000000000000000e+00" cType="1" res="3.4853790421038866e-03" rms="1.8416748940944672e-01" purity="5.7046230882406235e-02" nType="-99"/>
            <Node pos="r" depth="1" NCoef="0" IVar="1" Cut="4.0808048248291016e+00" cType="0" res="-1.9451923435553908e-03" rms="5.0050493329763412e-02" purity="2.5504676159471273e-03" nType="0">
              <Node pos="l" depth="2" NCoef="0" IVar="-1" Cut="0.0000000000000000e+00" cType="1" res="-7.2877503931522369e-02" rms="1.0215140879154205e-01" purity="1.0033370926976204e-02" nType="-99"/>
              <Node pos="r" depth="2" NCoef="0" IVar="-1" Cut="0.0000000000000000e+00" cType="1" res="-3.9793577045202255e-02" rms="4.8950444906949997e-02" purity="2.4508403148502111e-03" nType="-99"/>
            </Node>
          </Node>
        </BinaryTree>
        <BinaryTree type="DecisionTree" boostWeight="1.0000000000000000e+00" itree="57">
          <Node pos="s" depth="0" NCoef="0" IVar="1" Cut="2.4477394104003906e+01" cType="0" res="1.9399973098188639e-04" rms="1.4994144439697266e-01" purity="3.7737391889095306e-02" nType="0">
            <Node pos="l" depth="1" NCoef="0" IVar="-1" Cut="0.0000000000000000e+00" cType="1" res="4.8586785793304443e-02" rms="1.4528137445449829e-01" purity="9.7746163606643677e-01" nType="-99"/>
            <Node pos="r" depth="1" NCoef="0" IVar="1" Cut="8.8716144561767578e+00" cType="0" res="1.1393772183510009e-05" rms="1.4996601641178131e-01" purity="2.9936892911791801e-02" nType="0">
              <Node pos="l" depth="2" NCoef="0" IVar="-1" Cut="0.0000000000000000e+00" cType="1" res="-1.0702819563448429e-02" rms="4.3154749274253845e-01" purity="4.1296249628067017e-01" nType="-99"/>
              <Node pos="r" depth="2" NCoef="0" IVar="-1" Cut="0.0000000000000000e+00" cType="1" res="3.0044440645724535e-03" rms="1.3507822155952454e-01" purity="2.0044386386871338e-02" nType="-99"/>
            </Node>
          </Node>
        </BinaryTree>
        <BinaryTree type="DecisionTree" boostWeight="1.0000000000000000e+00" itree="58">
          <Node pos="s" depth="0" NCoef="0" IVar="2" Cut="2.8276002407073975e+00" cType="0" res="1.1158172128489241e-04" rms="1.4978522062301636e-01" purity="3.7578128278255463e-02" nType="0">
            <Node pos="l" depth="1" NCoef="0" IVar="-1" Cut="0.0000000000000000e+00" cType="1" res="3.5229111090302467e-03" rms="2.2305604815483093e-01" purity="8.8419087231159210e-02" nType="-99"/>
            <Node pos="r" depth="1" NCoef="0" IVar="1" Cut="2.6840710639953613e+00" cType="0" res="-1.0655701626092196e-03" rms="7.0488981902599335e-02" purity="5.0778891891241074e-03" nType="0">
              <Node pos="l" depth="2" NCoef="0" IVar="-1" Cut="0.0000000000000000e+00" cType="1" res="1.3061070814728737e-02" rms="1.5590631961822510e-01" purity="2.5574425235390663e-02" nType="-99"/>
              <Node pos="r" depth="2" NCoef="0" IVar="-1" Cut="0.0000000000000000e+00" cType="1" res="-2.3143699392676353e-02" rms="6.0853816568851471e-02" purity="3.7379427812993526e-03" nType="-99"/>
            </Node>
          </Node>
        </BinaryTree>
        <BinaryTree type="DecisionTree" boostWeight="1.0000000000000000e+00" itree="59">
          <Node pos="s" depth="0" NCoef="0" IVar="0" Cut="-5.9239108115434647e-02" cType="0" res="-6.7024637246504426e-05" rms="1.4996616542339325e-01" purity="3.7556495517492294e-02" nType="0">
            <Node pos="l" depth="1" NCoef="0" IVar="-1" Cut="0.0000000000000000e+00" cType="1" res="-1.1917159892618656e-02" rms="2.8843075037002563e-01" purity="1.1861203610897064e-01" nType="-99"/>
            <Node pos="r" depth="1" NCoef="0" IVar="2" Cut="5.0844902992248535e+00" cType="0" res="3.4999763011001050e-04" rms="1.4149846136569977e-01" purity="3.4266896545886993e-02" nType="0">
              <Node pos="l" depth="2" NCoef="0" IVar="-1" Cut="0.0000000000000000e+00" cType="1" res="1.6724489629268646e-02" rms="3.1678935885429382e-01" purity="6.4654368162155151e-01" nType="-99"/>
              <Node pos="r" depth="2" NCoef="0" IVar="-1" Cut="0.0000000000000000e+00" cType="1" res="1.3421133917290717e-04" rms="1.3661296665668488e-01" purity="2.3958599194884300e-02" nType="-99"/>
            </Node>
          </Node>
        </BinaryTree>
        <BinaryTree type="DecisionTree" boostWeight="1.0000000000000000e+00" itree="60">
          <Node pos="s" depth="0" NCoef="0" IVar="2" Cut="4.7712521553039551e+00" cType="0" res="-2.3524223070126027e-04" rms="1.4951772987842560e-01" purity="3.7335738539695740e-02" nType="0">
            <Node pos="l" depth="1" NCoef="0" IVar="-1" Cut="0.0000000000000000e+00" cType="1" res="-6.3948594033718109e-03" rms="3.3482936024665833e-01" purity="4.4086948037147522e-01" nType="-99"/>
            <Node pos="r" depth="1" NCoef="0" IVar="1" Cut="9.7457218170166016e+00" cType="0" res="5.6872646382544190e-05" rms="1.3853003084659576e-01" purity="2.3117421194911003e-02" nType="0">
              <Node pos="l" depth="2" NCoef="0" IVar="-1" Cut="0.0000000000000000e+00" cType="1" res="-1.0813456960022449e-02" rms="4.4037410616874695e-01" purity="3.8792881369590759e-01" nType="-99"/>
              <Node pos="r" depth="2" NCoef="0" IVar="-1" Cut="0.0000000000000000e+00" cType="1" res="2.2010279353708029e-03" rms="1.2904335558414459e-01" purity="1.7836906015872955e-02" nType="-99"/>
            </Node>
          </Node>
        </BinaryTree>
        <BinaryTree type="DecisionTree" boostWeight="1.0000000000000000e+00" itree="61">
          <Node pos="s" depth="0" NCoef="0" IVar="2" Cut="6.7305564880371094e+00" cType="0" res="1.1874086339958012e-04" rms="1.4983944594860077e-01" purity="3.7473991513252258e-02" nType="0">
            <Node pos="l" depth="1" NCoef="0" IVar="-1" Cut="0.0000000000000000e+00" cType="1" res="5.6772816926240921e-02" rms="1.6908638179302216e-01" purity="9.6530127525329590e-01" nType="-99"/>
            <Node pos="r" depth="1" NCoef="0" IVar="1" Cut="-5.0588269233703613e+00" cType="0" res="4.0473492845194414e-05" rms="1.4976942539215088e-01" purity="3.4603036940097809e-02" nType="0">
              <Node pos="l" depth="2" NCoef="0" IVar="-1" Cut="0.0000000000000000e+00" cType="1" res="2.4962995667010546e-03" rms="1.4790333807468414e-01" purity="3.4662421792745590e-02" nType="-99"/>
              <Node pos="r" depth="2" NCoef="0" IVar="-1" Cut="0.0000000000000000e+00" cType="1" res="-2.0662073045969009e-02" rms="1.7714904248714447e-01" purity="3.3636268228292465e-02" nType="-99"/>
            </Node>
          </Node>
        </BinaryTree>
        <BinaryTree type="DecisionTree" boostWeight="1.0000000000000000e+00" itree="62">
          <Node pos="s" depth="0" NCoef="0" IVar="0" Cut="-1.5158405900001526e-01" cType="0" res="-3.8470629988296423e-06" rms="1.4995047450065613e-01" purity="3.7687774747610092e-02" nType="0">
            <Node pos="l" depth="1" NCoef="0" IVar="-1" Cut="0.0000000000000000e+00" cType="1" res="-7.4855550192296505e-03" rms="2.8393357992172241e-01" purity="1.3315084576606750e-01" nType="-99"/>
            <Node pos="r" depth="1" NCoef="0" IVar="1" Cut="1.3121690750122070e+01" cType="0" res="3.5539970849640667e-04" rms="1.3867665827274323e-01" purity="3.2348342239856720e-02" nType="0">
              <Node pos="l" depth="2" NCoef="0" IVar="-1" Cut="0.0000000000000000e+00" cType="1" res="2.1923203021287918e-02" rms="3.1882840394973755e-01" purity="8.3673751354217529e-01" nType="-99"/>
              <Node pos="r" depth="2" NCoef="0" IVar="-1" Cut="0.0000000000000000e+00" cType="1" res="-2.2657499357592314e-04" rms="1.3425487279891968e-01" purity="2.0680865272879601e-02" nType="-99"/>
            </Node>
          </Node>
        </BinaryTree>
        <BinaryTree type="DecisionTree" boostWeight="1.0000000000000000e+00" itree="63">
          <Node pos="s" depth="0" NCoef="0" IVar="1" Cut="2.4566167831420898e+01" cType="0" res="-3.8956527714617550e-04" rms="1.4851199090480804e-01" purity="3.7176515907049179e-02" nType="0">
            <Node pos="l" depth="1" NCoef="0" IVar="-1" Cut="0.0000000000000000e+00" cType="1" res="3.8435023277997971e-02" rms="1.4754489064216614e-01" purity="9.7688853740692139e-01" nType="-99"/>
            <Node pos="r" depth="1" NCoef="0" IVar="2" Cut="5.7014579772949219e+00" cType="0" res="-5.1672273548319936e-04" rms="1.4851321280002594e-01" purity="2.9464365914463997e-02" nType="0">
              <Node pos="l" depth="2" NCoef="0" IVar="-1" Cut="0.0000000000000000e+00" cType="1" res="-3.3218063414096832e-02" rms="4.3930679559707642e-01" purity="5.5686414241790771e-01" nType="-99"/>
              <Node pos="r" depth="2" NCoef="0" IVar="-1" Cut="0.0000000000000000e+00" cType="1" res="-1.3833203120157123e-03" rms="1.4697511494159698e-01" purity="2.8095871210098267e-02" nType="-99"/>
            </Node>
          </Node>
        </BinaryTree>
        <BinaryTree type="DecisionTree" boostWeight="1.0000000000000000e+00" itree="64">
          <Node pos="s" depth="0" NCoef="0" IVar="1" Cut="1.4916560173034668e+01" cType="0" res="-3.3231877750949934e-05" rms="1.4913268387317657e-01" purity="3.7428807467222214e-02" nType="0">
            <Node pos="l" depth="1" NCoef="0" IVar="-1" Cut="0.0000000000000000e+00" cType="1" res="-1.6704978421330452e-02" rms="3.0729457736015320e-01" purity="8.5750490427017212e-01" nType="-99"/>
            <Node pos="r" depth="1" NCoef="0" IVar="2" Cut="5.7128410339355469e+00" cType="0" res="2.4664675584062934e-04" rms="1.4533214271068573e-01" purity="2.4773992598056793e-02" nType="0">
              <Node pos="l" depth="2" NCoef="0" IVar="-1" Cut="0.0000000000000000e+00" cType="1" res="-2.5049580261111259e-02" rms="4.6611315011978149e-01" purity="4.5028865337371826e-01" nType="-99"/>
              <Node pos="r" depth="2" NCoef="0" IVar="-1" Cut="0.0000000000000000e+00" cType="1" res="1.4631745871156454e-03" rms="1.4411424100399017e-01" purity="2.4022277444601059e-02" nType="-99"/>
            </Node>
          </Node>
        </BinaryTree>
        <BinaryTree type="DecisionTree" boostWeight="1.0000000000000000e+00" itree="65">
          <Node pos="s" depth="0" NCoef="0" IVar="0" Cut="-4.3552574515342712e-01" cType="0" res="2.2510699636768550e-04" rms="1.4944402873516083e-01" purity="3.7509646266698837e-02" nType="0">
            <Node pos="l" depth="1" NCoef="0" IVar="-1" Cut="0.0000000000000000e+00" cType="1" res="5.3442358039319515e-03" rms="2.7379024028778076e-01" purity="1.5896403789520264e-01" nType="-99"/>
            <Node pos="r" depth="1" NCoef="0" IVar="2" Cut="4.3931698799133301e+00" cType="0" res="-4.1589955799281597e-04" rms="1.1991145461797714e-01" purity="1.9158801063895226e-02" nType="0">
              <Node pos="l" depth="2" NCoef="0" IVar="-1" Cut="0.0000000000000000e+00" cType="1" res="8.0258287489414215e-03" rms="2.9385340213775635e-01" purity="1.7466466128826141e-01" nType="-99"/>
              <Node pos="r" depth="2" NCoef="0" IVar="-1" Cut="0.0000000000000000e+00" cType="1" res="-5.6467079557478428e-03" rms="1.0524144768714905e-01" purity="1.2028088793158531e-02" nType="-99"/>
            </Node>
          </Node>
        </BinaryTree>
        <BinaryTree type="DecisionTree" boostWeight="1.0000000000000000e+00" itree="66">
          <Node pos="s" depth="0" NCoef="0" IVar="1" Cut="2.2020347595214844e+01" cType="0" res="-2.9555481160059571e-04" rms="1.4859147369861603e-01" purity="3.7253476679325104e-02" nType="0">
            <Node pos="l" depth="1" NCoef="0" IVar="-1" Cut="0.0000000000000000e+00" cType="1" res="3.9952635765075684e-02" rms="1.6514863073825836e-01" purity="9.6964055299758911e-01" nType="-99"/>
            <Node pos="r" depth="1" NCoef="0" IVar="1" Cut="-3.7487190246582031e+01" cType="1" res="-4.8794320900924504e-04" rms="1.4841435849666595e-01" purity="2.8528284281492233e-02" nType="0">
              <Node pos="l" depth="2" NCoef="0" IVar="-1" Cut="0.0000000000000000e+00" cType="1" res="1.5363256633281708e-01" rms="3.7475198507308960e-01" purity="7.8902566432952881e-01" nType="-99"/>
              <Node pos="r" depth="2" NCoef="0" IVar="-1" Cut="0.0000000000000000e+00" cType="1" res="-1.9661975093185902e-03" rms="1.4838190376758575e-01" purity="2.8496233746409416e-02" nType="-99"/>
            </Node>
          </Node>
        </BinaryTree>
        <BinaryTree type="DecisionTree" boostWeight="1.0000000000000000e+00" itree="67">
          <Node pos="s" depth="0" NCoef="0" IVar="2" Cut="4.7712521553039551e+00" cType="0" res="3.4528251853771508e-04" rms="1.4997173845767975e-01" purity="3.7807341665029526e-02" nType="0">
            <Node pos="l" depth="1" NCoef="0" IVar="-1" Cut="0.0000000000000000e+00" cType="1" res="-6.3439141958951950e-03" rms="3.3189558982849121e-01" purity="4.4193962216377258e-01" nType="-99"/>
            <Node pos="r" depth="1" NCoef="0" IVar="2" Cut="4.0308060646057129e+00" cType="0" res="6.5045920200645924e-04" rms="1.3926757872104645e-01" purity="2.3546896874904633e-02" nType="0">
              <Node pos="l" depth="2" NCoef="0" IVar="-1" Cut="0.0000000000000000e+00" cType="1" res="9.9377762526273727e-03" rms="2.7699315547943115e-01" purity="1.0754142701625824e-01" nType="-99"/>
              <Node pos="r" depth="2" NCoef="0" IVar="-1" Cut="0.0000000000000000e+00" cType="1" res="-7.4104225495830178e-04" rms="1.1547826230525970e-01" purity="1.4677007682621479e-02" nType="-99"/>
            </Node>
          </Node>
        </BinaryTree>
        <BinaryTree type="DecisionTree" boostWeight="1.0000000000000000e+00" itree="68">
          <Node pos="s" depth="0" NCoef="0" IVar="1" Cut="-4.5506282806396484e+01" cType="1" res="-1.0845490032806993e-04" rms="1.4894442260265350e-01" purity="3.7307288497686386e-02" nType="0">
            <Node pos="l" depth="1" NCoef="0" IVar="-1" Cut="0.0000000000000000e+00" cType="1" res="1.5961921215057373e-01" rms="2.5684762001037598e-01" purity="9.6179974079132080e-01" nType="-99"/>
            <Node pos="r" depth="1" NCoef="0" IVar="1" Cut="-4.2803640365600586e+00" cType="0" res="-1.1720754991983995e-04" rms="1.4893068373203278e-01" purity="3.7283368408679962e-02" nType="0">
              <Node pos="l" depth="2" NCoef="0" IVar="-1" Cut="0.0000000000000000e+00" cType="1" res="1.9370630616322160e-03" rms="1.4690414071083069e-01" purity="3.7737593054771423e-02" nType="-99"/>
              <Node pos="r" depth="2" NCoef="0" IVar="-1" Cut="0.0000000000000000e+00" cType="1" res="-1.7671152949333191e-02" rms="1.7132277786731720e-01" purity="3.1808789819478989e-02" nType="-99"/>
            </Node>
          </Node>
        </BinaryTree>
        <BinaryTree type="DecisionTree" boostWeight="1.0000000000000000e+00" itree="69">
          <Node pos="s" depth="0" NCoef="0" IVar="1" Cut="-2.3568768501281738e+00" cType="0" res="-7.8132288763299584e-05" rms="1.4910674095153809e-01" purity="3.7324972450733185e-02" nType="0">
            <Node pos="l" depth="1" NCoef="0" IVar="-1" Cut="0.0000000000000000e+00" cType="1" res="2.6816371828317642e-03" rms="1.4883744716644287e-01" purity="3.9783917367458344e-02" nType="-99"/>
            <Node pos="r" depth="1" NCoef="0" IVar="0" Cut="2.2650115191936493e-01" cType="0" res="-3.9739748463034630e-03" rms="1.5045520663261414e-01" purity="2.4391267448663712e-02" nType="0">
              <Node pos="l" depth="2" NCoef="0" IVar="-1" Cut="0.0000000000000000e+00" cType="1" res="6.1181578785181046e-02" rms="2.6004970073699951e-01" purity="7.6160520315170288e-02" nType="-99"/>
              <Node pos="r" depth="2" NCoef="0" IVar="-1" Cut="0.0000000000000000e+00" cType="1" res="-1.6828974708914757e-02" rms="1.4567457139492035e-01" purity="2.2802328690886497e-02" nType="-99"/>
            </Node>
          </Node>
        </BinaryTree>
        <BinaryTree type="DecisionTree" boostWeight="1.0000000000000000e+00" itree="70">
          <Node pos="s" depth="0" NCoef="0" IVar="0" Cut="-4.3550613522529602e-01" cType="0" res="-1.5658210031688213e-04" rms="1.4928975701332092e-01" purity="3.7506394088268280e-02" nType="0">
            <Node pos="l" depth="1" NCoef="0" IVar="-1" Cut="0.0000000000000000e+00" cType="1" res="3.9279791526496410e-03" rms="2.7520275115966797e-01" purity="1.5988996624946594e-01" nType="-99"/>
            <Node pos="r" depth="1" NCoef="0" IVar="2" Cut="4.4099049568176270e+00" cType="0" res="-6.8196863867342472e-04" rms="1.1904286593198776e-01" purity="1.8927289173007011e-02" nType="0">
              <Node pos="l" depth="2" NCoef="0" IVar="-1" Cut="0.0000000000000000e+00" cType="1" res="5.8375224471092224e-03" rms="2.9764917492866516e-01" purity="1.7915917932987213e-01" nType="-99"/>
              <Node pos="r" depth="2" NCoef="0" IVar="-1" Cut="0.0000000000000000e+00" cType="1" res="-7.0317266508936882e-03" rms="1.0424011945724487e-01" purity="1.1814870871603489e-02" nType="-99"/>
            </Node>
          </Node>
        </BinaryTree>
        <BinaryTree type="DecisionTree" boostWeight="1.0000000000000000e+00" itree="71">
          <Node pos="s" depth="0" NCoef="0" IVar="1" Cut="8.2583751678466797e+00" cType="0" res="4.8460808466188610e-04" rms="1.5042749047279358e-01" purity="3.7873160094022751e-02" nType="0">
            <Node pos="l" depth="1" NCoef="0" IVar="-1" Cut="0.0000000000000000e+00" cType="1" res="-5.9836073778569698e-03" rms="3.7889987230300903e-01" purity="5.1245415210723877e-01" nType="-99"/>
            <Node pos="r" depth="1" NCoef="0" IVar="0" Cut="1.3118223845958710e-01" cType="0" res="8.9629681315273046e-04" rms="1.3402871787548065e-01" purity="1.9585687667131424e-02" nType="0">
              <Node pos="l" depth="2" NCoef="0" IVar="-1" Cut="0.0000000000000000e+00" cType="1" res="3.8514412939548492e-02" rms="2.6168653368949890e-01" purity="7.6730102300643921e-02" nType="-99"/>
              <Node pos="r" depth="2" NCoef="0" IVar="-1" Cut="0.0000000000000000e+00" cType="1" res="2.7723796665668488e-03" rms="1.3071496784687042e-01" purity="1.8602080643177032e-02" nType="-99"/>
            </Node>
          </Node>
        </BinaryTree>
        <BinaryTree type="DecisionTree" boostWeight="1.0000000000000000e+00" itree="72">
          <Node pos="s" depth="0" NCoef="0" IVar="2" Cut="1.8557741641998291e+00" cType="0" res="2.2227376757655293e-04" rms="1.4998088777065277e-01" purity="3.7718426436185837e-02" nType="0">
            <Node pos="l" depth="1" NCoef="0" IVar="-1" Cut="0.0000000000000000e+00" cType="1" res="3.3810902386903763e-03" rms="1.8895891308784485e-01" purity="6.0829408466815948e-02" nType="-99"/>
            <Node pos="r" depth="1" NCoef="0" IVar="1" Cut="5.2033114433288574e+00" cType="0" res="-1.4939451357349753e-03" rms="4.6755261719226837e-02" purity="2.2008235100656748e-03" nType="0">
              <Node pos="l" depth="2" NCoef="0" IVar="-1" Cut="0.0000000000000000e+00" cType="1" res="7.3973792791366577e-01" rms="4.2791238427162170e-01" purity="2.5783899426460266e-01" nType="-99"/>
              <Node pos="r" depth="2" NCoef="0" IVar="-1" Cut="0.0000000000000000e+00" cType="1" res="-3.5777244716882706e-02" rms="4.6572070568799973e-02" purity="2.1821514237672091e-03" nType="-99"/>
            </Node>
          </Node>
        </BinaryTree>
        <BinaryTree type="DecisionTree" boostWeight="1.0000000000000000e+00" itree="73">
          <Node pos="s" depth="0" NCoef="0" IVar="0" Cut="3.1591188907623291e-01" cType="0" res="-2.3371691349893808e-04" rms="1.4890982210636139e-01" purity="3.7280511111021042e-02" nType="0">
            <Node pos="l" depth="1" NCoef="0" IVar="-1" Cut="0.0000000000000000e+00" cType="1" res="-1.9085584208369255e-02" rms="2.8880348801612854e-01" purity="8.8302299380302429e-02" nType="-99"/>
            <Node pos="r" depth="1" NCoef="0" IVar="1" Cut="2.4566167831420898e+01" cType="0" res="-7.9812780313659459e-05" rms="1.4684599637985229e-01" purity="3.6773920059204102e-02" nType="0">
              <Node pos="l" depth="2" NCoef="0" IVar="-1" Cut="0.0000000000000000e+00" cType="1" res="4.4480137526988983e-02" rms="1.2977160513401031e-01" purity="9.8237884044647217e-01" nType="-99"/>
              <Node pos="r" depth="2" NCoef="0" IVar="-1" Cut="0.0000000000000000e+00" cType="1" res="-8.1484246766194701e-04" rms="1.4697057008743286e-01" purity="2.9065193608403206e-02" nType="-99"/>
            </Node>
          </Node>
        </BinaryTree>
        <BinaryTree type="DecisionTree" boostWeight="1.0000000000000000e+00" itree="74">
          <Node pos="s" depth="0" NCoef="0" IVar="2" Cut="4.7897500991821289e+00" cType="0" res="3.3965131933655357e-06" rms="1.4934302866458893e-01" purity="3.7413228303194046e-02" nType="0">
            <Node pos="l" depth="1" NCoef="0" IVar="-1" Cut="0.0000000000000000e+00" cType="1" res="-5.5961208418011665e-03" rms="3.3299010992050171e-01" purity="4.4909089803695679e-01" nType="-99"/>
            <Node pos="r" depth="1" NCoef="0" IVar="1" Cut="7.0649766921997070e+00" cType="0" res="2.5438348529860377e-04" rms="1.3889010250568390e-01" purity="2.3419553413987160e-02" nType="0">
              <Node pos="l" depth="2" NCoef="0" IVar="-1" Cut="0.0000000000000000e+00" cType="1" res="-6.7080534063279629e-03" rms="3.8470202684402466e-01" purity="2.4993669986724854e-01" nType="-99"/>
              <Node pos="r" depth="2" NCoef="0" IVar="-1" Cut="0.0000000000000000e+00" cType="1" res="3.9599500596523285e-03" rms="1.2229894846677780e-01" purity="1.5801915898919106e-02" nType="-99"/>
            </Node>
          </Node>
        </BinaryTree>
        <BinaryTree type="DecisionTree" boostWeight="1.0000000000000000e+00" itree="75">
          <Node pos="s" depth="0" NCoef="0" IVar="0" Cut="-4.3438673019409180e-01" cType="0" res="-1.5723514661658555e-04" rms="1.4935918152332306e-01" purity="3.7479571998119354e-02" nType="0">
            <Node pos="l" depth="1" NCoef="0" IVar="-1" Cut="0.0000000000000000e+00" cType="1" res="3.4686888102442026e-03" rms="2.7501472830772400e-01" purity="1.5988561511039734e-01" nType="-99"/>
            <Node pos="r" depth="1" NCoef="0" IVar="2" Cut="5.0596795082092285e+00" cType="0" res="-6.2929902924224734e-04" rms="1.1932476609945297e-01" purity="1.8959525972604752e-02" nType="0">
              <Node pos="l" depth="2" NCoef="0" IVar="-1" Cut="0.0000000000000000e+00" cType="1" res="9.3278586864471436e-03" rms="3.6151972413063049e-01" purity="4.5644268393516541e-01" nType="-99"/>
              <Node pos="r" depth="2" NCoef="0" IVar="-1" Cut="0.0000000000000000e+00" cType="1" res="-4.7125294804573059e-03" rms="1.1499074101448059e-01" purity="1.5150015242397785e-02" nType="-99"/>
            </Node>
          </Node>
        </BinaryTree>
        <BinaryTree type="DecisionTree" boostWeight="1.0000000000000000e+00" itree="76">
          <Node pos="s" depth="0" NCoef="0" IVar="0" Cut="-5.9239108115434647e-02" cType="0" res="6.8838082370348275e-05" rms="1.4993008971214294e-01" purity="3.7536423653364182e-02" nType="0">
            <Node pos="l" depth="1" NCoef="0" IVar="-1" Cut="0.0000000000000000e+00" cType="1" res="-8.0800391733646393e-03" rms="2.9095649719238281e-01" purity="1.2276323884725571e-01" nType="-99"/>
            <Node pos="r" depth="1" NCoef="0" IVar="1" Cut="1.1291729927062988e+01" cType="0" res="3.5513157490640879e-04" rms="1.4132435619831085e-01" purity="3.4103672951459885e-02" nType="0">
              <Node pos="l" depth="2" NCoef="0" IVar="-1" Cut="0.0000000000000000e+00" cType="1" res="1.3420667499303818e-02" rms="3.5675168037414551e-01" purity="7.4782371520996094e-01" nType="-99"/>
              <Node pos="r" depth="2" NCoef="0" IVar="-1" Cut="0.0000000000000000e+00" cType="1" res="-1.5262966917362064e-04" rms="1.3359679281711578e-01" purity="2.0023778080940247e-02" nType="-99"/>
            </Node>
          </Node>
        </BinaryTree>
        <BinaryTree type="DecisionTree" boostWeight="1.0000000000000000e+00" itree="77">
          <Node pos="s" depth="0" NCoef="0" IVar="0" Cut="-8.1178754568099976e-01" cType="0" res="3.6218808963894844e-04" rms="1.5054583549499512e-01" purity="3.7935044616460800e-02" nType="0">
            <Node pos="l" depth="1" NCoef="0" IVar="-1" Cut="0.0000000000000000e+00" cType="1" res="3.6716703325510025e-03" rms="2.1423234045505524e-01" purity="8.0809406936168671e-02" nType="-99"/>
            <Node pos="r" depth="1" NCoef="0" IVar="1" Cut="2.0664125442504883e+01" cType="0" res="-8.0422923201695085e-04" rms="6.8955741822719574e-02" purity="4.8889024183154106e-03" nType="0">
              <Node pos="l" depth="2" NCoef="0" IVar="-1" Cut="0.0000000000000000e+00" cType="1" res="-4.3452569842338562e-01" rms="4.1900423169136047e-01" purity="3.6398985981941223e-01" nType="-99"/>
              <Node pos="r" depth="2" NCoef="0" IVar="-1" Cut="0.0000000000000000e+00" cType="1" res="-1.3250387273728848e-02" rms="6.8758226931095123e-02" purity="4.8645599745213985e-03" nType="-99"/>
            </Node>
          </Node>
        </BinaryTree>
        <BinaryTree type="DecisionTree" boostWeight="1.0000000000000000e+00" itree="78">
          <Node pos="s" depth="0" NCoef="0" IVar="2" Cut="4.8114404678344727e+00" cType="0" res="-1.2386457819957286e-04" rms="1.4931435883045197e-01" purity="3.7426844239234924e-02" nType="0">
            <Node pos="l" depth="1" NCoef="0" IVar="-1" Cut="0.0000000000000000e+00" cType="1" res="-6.3248840160667896e-03" rms="3.3145821094512939e-01" purity="4.6242362260818481e-01" nType="-99"/>
            <Node pos="r" depth="1" NCoef="0" IVar="1" Cut="1.4107592582702637e+01" cType="0" res="1.3751971710007638e-04" rms="1.3948109745979309e-01" purity="2.3655191063880920e-02" nType="0">
              <Node pos="l" depth="2" NCoef="0" IVar="-1" Cut="0.0000000000000000e+00" cType="1" res="-2.1436329931020737e-02" rms="4.5335006713867188e-01" purity="6.3848644495010376e-01" nType="-99"/>
              <Node pos="r" depth="2" NCoef="0" IVar="-1" Cut="0.0000000000000000e+00" cType="1" res="1.6697300598025322e-03" rms="1.3633866608142853e-01" purity="2.0825305953621864e-02" nType="-99"/>
            </Node>
          </Node>
        </BinaryTree>
